{"learner":{"attributes":{"scikit_learn":"{\"_estimator_type\": \"regressor\"}"},"feature_names":["bid_ask_spread_pct","options_activity_ratio","price_acceleration","price_distance_from_high","price_momentum_10d","price_rsi_14d","price_volatility_20d","put_call_ratio","volume_price_trend","volume_spike_ratio"],"feature_types":["float","float","float","float","float","float","float","float","float","float"],"gradient_booster":{"model":{"gbtree_model_param":{"num_parallel_tree":"1","num_trees":"100"},"iteration_indptr":[0,1,2,3,4,5,6,7,8,9,10,11,12,13,14,15,16,17,18,19,20,21,22,23,24,25,26,27,28,29,30,31,32,33,34,35,36,37,38,39,40,41,42,43,44,45,46,47,48,49,50,51,52,53,54,55,56,57,58,59,60,61,62,63,64,65,66,67,68,69,70,71,72,73,74,75,76,77,78,79,80,81,82,83,84,85,86,87,88,89,90,91,92,93,94,95,96,97,98,99,100],"tree_info":[0,0,0,0,0,0,0,0,0,0,0,0,0,0,0,0,0,0,0,0,0,0,0,0,0,0,0,0,0,0,0,0,0,0,0,0,0,0,0,0,0,0,0,0,0,0,0,0,0,0,0,0,0,0,0,0,0,0,0,0,0,0,0,0,0,0,0,0,0,0,0,0,0,0,0,0,0,0,0,0,0,0,0,0,0,0,0,0,0,0,0,0,0,0,0,0,0,0,0,0],"trees":[{"base_weights":[-1.3020834E-3,-4.292194E4,1.2424772E5,6.4093E4,4.3439074E4,1.5345602E5,-1.2858358E5,-1.0516597E4,1.8309458E5,-2.2461611E4,-1.1120448E4,2.0975984E5,1.7327297E4,5.8249546E3,-9.990696E3,7.8404556E3,2.5424998E4,2.6662532E3,5.3280414E2],"categories":[],"categories_nodes":[],"categories_segments":[],"categories_sizes":[],"default_left":[1,0,0,0,0,0,0,0,0,0,0,0,0,0,0,0,0,0,0],"id":0,"left_children":[1,-1,3,5,-1,7,9,-1,11,-1,13,15,17,-1,-1,-1,-1,-1,-1],"loss_changes":[2.613147E12,0E0,6.81108E11,5.8793125E11,0E0,1.9555457E11,1.2158527E11,0E0,8.919024E10,0E0,4.2774254E10,8.525788E10,3.0600422E8,0E0,0E0,0E0,0E0,0E0,0E0],"parents":[2147483647,0,0,2,2,3,3,5,5,6,6,8,8,10,10,11,11,12,12],"right_children":[2,-1,4,6,-1,8,10,-1,12,-1,14,16,18,-1,-1,-1,-1,-1,-1],"split_conditions":[9.308958E-3,-4.292194E4,1.5056648E0,-1.0178117E-1,4.3439074E4,-3.6380368E-1,5.9972107E-2,-1.0516597E4,1.2352611E-2,-2.2461611E4,3.5051852E-2,6.2534964E-1,1.6064256E-2,5.8249546E3,-9.990696E3,7.8404556E3,2.5424998E4,2.6662532E3,5.3280414E2],"split_indices":[1,0,7,3,0,3,4,0,0,0,1,9,0,0,0,0,0,0,0],"split_type":[0,0,0,0,0,0,0,0,0,0,0,0,0,0,0,0,0,0,0],"sum_hessian":[4.7E1,1E1,3.7E1,3.2E1,5E0,2.2E1,1E1,2E0,2E1,5E0,5E0,1.7E1,3E0,3E0,2E0,5E0,1.2E1,1E0,2E0],"tree_param":{"num_deleted":"0","num_feature":"10","num_nodes":"19","size_leaf_vector":"1"}},{"base_weights":[-3.3776042E0,-3.901995E4,1.1294821E5,5.7663117E4,3.9819152E4,1.392386E5,-1.1814588E5,-9.815487E3,1.6652153E5,-2.058981E4,-1.07026875E4,6.557462E4,2.123111E5,5.3880845E3,-9.32465E3,1.6491771E4,4.9739688E2,2.2474588E4,2.5329407E3],"categories":[],"categories_nodes":[],"categories_segments":[],"categories_sizes":[],"default_left":[1,0,0,0,0,0,0,0,0,0,0,0,0,0,0,0,0,0,0],"id":1,"left_children":[1,-1,3,5,-1,7,9,-1,11,-1,13,15,17,-1,-1,-1,-1,-1,-1],"loss_changes":[2.1595889E12,0E0,5.762877E11,4.8972664E11,0E0,1.6531112E11,1.0150851E11,0E0,8.3146375E10,0E0,3.7010026E10,4.7341752E10,2.6858357E10,0E0,0E0,0E0,0E0,0E0,0E0],"parents":[2147483647,0,0,2,2,3,3,5,5,6,6,8,8,10,10,11,11,12,12],"right_children":[2,-1,4,6,-1,8,10,-1,12,-1,14,16,18,-1,-1,-1,-1,-1,-1],"split_conditions":[9.308958E-3,-3.901995E4,1.5056648E0,-1.0178117E-1,3.9819152E4,-3.6380368E-1,5.9972107E-2,-9.815487E3,2.4013774E-2,-2.058981E4,3.5051852E-2,4.14651E-3,1.2352611E-2,5.3880845E3,-9.32465E3,1.6491771E4,4.9739688E2,2.2474588E4,2.5329407E3],"split_indices":[1,0,7,3,0,3,4,0,1,0,1,0,0,0,0,0,0,0,0],"split_type":[0,0,0,0,0,0,0,0,0,0,0,0,0,0,0,0,0,0,0],"sum_hessian":[4.7E1,1E1,3.7E1,3.2E1,5E0,2.2E1,1E1,2E0,2E1,5E0,5E0,7E0,1.3E1,3E0,2E0,2E0,5E0,1.2E1,1E0],"tree_param":{"num_deleted":"0","num_feature":"10","num_nodes":"19","size_leaf_vector":"1"}},{"base_weights":[1.7309766E2,-3.5472678E5,1.0290272E5,-9.722854E3,-3.7075375E4,5.2128785E4,3.650089E4,1.2671394E5,-1.0856096E5,-9.161121E3,1.5186925E5,-1.8873992E4,-1.0288511E4,6.114082E4,1.9286625E5,4.98398E3,-8.703009E3,1.539232E4,4.5594897E2,2.401875E3,2.0400693E4],"categories":[],"categories_nodes":[],"categories_segments":[],"categories_sizes":[],"default_left":[1,0,0,0,0,0,0,0,0,0,0,0,0,0,0,0,0,0,0,0,0],"id":2,"left_children":[1,3,5,-1,-1,7,-1,9,11,-1,13,-1,15,17,19,-1,-1,-1,-1,-1,-1],"loss_changes":[1.7865213E12,9.348317E9,4.8668272E11,0E0,0E0,4.0926344E11,0E0,1.402298E11,8.473136E10,0E0,6.6319417E10,0E0,3.2023605E10,4.129619E10,2.1435056E10,0E0,0E0,0E0,0E0,0E0,0E0],"parents":[2147483647,0,0,1,1,2,2,5,5,7,7,8,8,10,10,12,12,13,13,14,14],"right_children":[2,4,6,-1,-1,8,-1,10,12,-1,14,-1,16,18,20,-1,-1,-1,-1,-1,-1],"split_conditions":[9.308958E-3,9.308958E-3,1.5056648E0,-9.722854E3,-3.7075375E4,-1.0178117E-1,3.650089E4,-3.6380368E-1,5.9972107E-2,-9.161121E3,2.4013774E-2,-1.8873992E4,3.5051852E-2,4.14651E-3,-1.146692E-1,4.98398E3,-8.703009E3,1.539232E4,4.5594897E2,2.401875E3,2.0400693E4],"split_indices":[1,1,7,0,0,3,0,3,4,0,1,0,1,0,8,0,0,0,0,0,0],"split_type":[0,0,0,0,0,0,0,0,0,0,0,0,0,0,0,0,0,0,0,0,0],"sum_hessian":[4.7E1,1E1,3.7E1,1E0,9E0,3.2E1,5E0,2.2E1,1E1,2E0,2E1,5E0,5E0,7E0,1.3E1,3E0,2E0,2E0,5E0,1E0,1.2E1],"tree_param":{"num_deleted":"0","num_feature":"10","num_nodes":"21","size_leaf_vector":"1"}},{"base_weights":[8.4944664E1,-3.235085E5,9.375449E4,-9.236711E3,-3.373859E4,4.7124902E4,3.3459152E4,1.1532471E5,-9.975878E4,-8.550379E3,1.3852284E5,-1.7301158E5,-9.879511E3,4.4027242E4,1.7338594E5,-2.0248738E4,-7.604E3,4.6101797E3,-8.1228086E3,8.679828E3,-9.75061E2,1.9750385E4,1.1079708E3],"categories":[],"categories_nodes":[],"categories_segments":[],"categories_sizes":[],"default_left":[1,0,0,0,0,0,0,0,0,0,0,0,0,0,0,0,0,0,0,0,0,0,0],"id":3,"left_children":[1,3,5,-1,-1,7,-1,9,11,-1,13,15,17,19,21,-1,-1,-1,-1,-1,-1,-1,-1],"loss_changes":[1.4852513E12,4.1206415E9,4.109774E11,0E0,0E0,3.420801E11,0E0,1.18997746E11,7.071373E10,0E0,6.1548823E10,1.752744E9,2.7709878E10,1.6947279E10,5.6529027E10,0E0,0E0,0E0,0E0,0E0,0E0,0E0,0E0],"parents":[2147483647,0,0,1,1,2,2,5,5,7,7,8,8,10,10,11,11,12,12,13,13,14,14],"right_children":[2,4,6,-1,-1,8,-1,10,12,-1,14,16,18,20,22,-1,-1,-1,-1,-1,-1,-1,-1],"split_conditions":[9.308958E-3,9.308958E-3,1.5056648E0,-9.236711E3,-3.373859E4,-1.0178117E-1,3.3459152E4,-3.6380368E-1,5.9972107E-2,-8.550379E3,6.2534964E-1,4.6412203E-2,3.5051852E-2,3.9344262E-3,1.2352611E-2,-2.0248738E4,-7.604E3,4.6101797E3,-8.1228086E3,8.679828E3,-9.75061E2,1.9750385E4,1.1079708E3],"split_indices":[1,1,7,0,0,3,0,3,4,0,9,1,1,0,0,0,0,0,0,0,0,0,0],"split_type":[0,0,0,0,0,0,0,0,0,0,0,0,0,0,0,0,0,0,0,0,0,0,0],"sum_hessian":[4.7E1,1E1,3.7E1,1E0,9E0,3.2E1,5E0,2.2E1,1E1,2E0,2E1,5E0,5E0,6E0,1.4E1,3E0,2E0,3E0,2E0,3E0,3E0,1.2E1,2E0],"tree_param":{"num_deleted":"0","num_feature":"10","num_nodes":"23","size_leaf_vector":"1"}},{"base_weights":[-3.5831055E2,-2.950645E5,8.4960805E4,-8.774875E3,-3.070212E4,4.2068395E4,3.067089E4,1.0466236E5,-9.26343E4,-7.980354E3,1.2603071E5,-1.6035255E5,-9.477E3,4.0725207E4,1.574379E5,-1.8730082E4,-7.0970664E3,4.2644155E3,-7.5812875E4,8.0288423E3,-9.019313E2,9.477882E3,2.3563006E4,-2.2584907E3,-9.11344E3],"categories":[],"categories_nodes":[],"categories_segments":[],"categories_sizes":[],"default_left":[1,0,0,0,0,0,0,0,0,0,0,0,0,0,0,0,0,0,0,0,0,0,0,0,0],"id":4,"left_children":[1,3,5,-1,-1,7,-1,9,11,-1,13,15,17,19,21,-1,-1,-1,23,-1,-1,-1,-1,-1,-1],"loss_changes":[1.2319843E12,3.2630374E8,3.4852697E11,0E0,0E0,2.8793733E11,0E0,1.0071753E11,6.0424274E10,0E0,4.985163E10,1.1592499E9,2.397799E10,1.4500519E10,5.1159007E10,0E0,0E0,0E0,3.8834176E8,0E0,0E0,0E0,0E0,0E0,0E0],"parents":[2147483647,0,0,1,1,2,2,5,5,7,7,8,8,10,10,11,11,12,12,13,13,14,14,18,18],"right_children":[2,4,6,-1,-1,8,-1,10,12,-1,14,16,18,20,22,-1,-1,-1,24,-1,-1,-1,-1,-1,-1],"split_conditions":[9.308958E-3,9.308958E-3,1.5056648E0,-8.774875E3,-3.070212E4,-1.0178117E-1,3.067089E4,-3.6380368E-1,5.9972107E-2,-7.980354E3,6.2534964E-1,4.6412203E-2,3.5051852E-2,3.9344262E-3,4.2082734E-2,-1.8730082E4,-7.0970664E3,4.2644155E3,3.968254E-3,8.0288423E3,-9.019313E2,9.477882E3,2.3563006E4,-2.2584907E3,-9.11344E3],"split_indices":[1,1,7,0,0,3,0,3,4,0,9,1,1,0,6,0,0,0,0,0,0,0,0,0,0],"split_type":[0,0,0,0,0,0,0,0,0,0,0,0,0,0,0,0,0,0,0,0,0,0,0,0,0],"sum_hessian":[4.7E1,1E1,3.7E1,1E0,9E0,3.2E1,5E0,2.2E1,1E1,2E0,2E1,5E0,5E0,6E0,1.4E1,3E0,2E0,3E0,2E0,3E0,3E0,9E0,5E0,1E0,1E0],"tree_param":{"num_deleted":"0","num_feature":"10","num_nodes":"25","size_leaf_vector":"1"}},{"base_weights":[-5.215E2,-2.6914686E4,7.7252195E4,3.7838918E4,2.8114984E4,9.5595586E4,-8.636493E4,-7.448329E3,1.153404E5,-1.4862181E5,-9.7138955E3,1.743835E4,1.3735039E5,-1.7325326E4,-6.623929E3,3.9445828E3,-7.202223E4,3.6462168E3,-7.39825E2,1.5485929E4,4.0224582E2,-2.1455657E3,-8.657769E3],"categories":[],"categories_nodes":[],"categories_segments":[],"categories_sizes":[],"default_left":[1,0,0,0,0,0,0,0,0,0,0,0,0,0,0,0,0,0,0,0,0,0,0],"id":5,"left_children":[1,-1,3,5,-1,7,9,-1,11,13,15,17,19,-1,-1,-1,21,-1,-1,-1,-1,-1,-1],"loss_changes":[1.0236075E12,0E0,2.9473997E11,2.4498494E11,0E0,8.582898E10,5.104889E10,0E0,4.285612E10,6.9903155E8,2.1219338E10,2.6321907E9,3.9062274E10,0E0,0E0,0E0,3.504773E8,0E0,0E0,0E0,0E0,0E0,0E0],"parents":[2147483647,0,0,2,2,3,3,5,5,6,6,8,8,9,9,10,10,11,11,12,12,16,16],"right_children":[2,-1,4,6,-1,8,10,-1,12,14,16,18,20,-1,-1,-1,22,-1,-1,-1,-1,-1,-1],"split_conditions":[9.308958E-3,-2.6914686E4,1.5056648E0,-1.0178117E-1,2.8114984E4,-3.6380368E-1,5.9972107E-2,-7.448329E3,5.9675896E-1,4.6412203E-2,3.5051852E-2,3.9344262E-3,1.2352611E-2,-1.7325326E4,-6.623929E3,3.9445828E3,3.968254E-3,3.6462168E3,-7.39825E2,1.5485929E4,4.0224582E2,-2.1455657E3,-8.657769E3],"split_indices":[1,0,7,3,0,3,4,0,9,1,1,0,0,0,0,0,0,0,0,0,0,0,0],"split_type":[0,0,0,0,0,0,0,0,0,0,0,0,0,0,0,0,0,0,0,0,0,0,0],"sum_hessian":[4.7E1,1E1,3.7E1,3.2E1,5E0,2.2E1,1E1,2E0,2E1,5E0,5E0,4E0,1.6E1,3E0,2E0,3E0,2E0,2E0,2E0,1.4E1,2E0,1E0,1E0],"tree_param":{"num_deleted":"0","num_feature":"10","num_nodes":"23","size_leaf_vector":"1"}},{"base_weights":[-8.498008E2,-2.4467895E5,6.975469E4,-6.990397E3,-2.5516605E4,3.3465273E4,2.5772068E4,8.6529336E4,-8.0529164E4,-6.951775E3,1.04701336E5,-1.3775117E5,-9.885625E3,3.605889E4,1.3644692E5,-1.6025925E4,-6.1823335E3,3.6487407E3,-6.8421125E4,1.3934784E4,1.3964911E2,6.63157E3,1.6804031E4,-2.0382875E3,-8.224882E3],"categories":[],"categories_nodes":[],"categories_segments":[],"categories_sizes":[],"default_left":[1,0,0,0,0,0,0,0,0,0,0,0,0,0,0,0,0,0,0,0,0,0,0,0,0],"id":6,"left_children":[1,3,5,-1,-1,7,-1,9,11,-1,13,15,17,19,21,-1,-1,-1,23,-1,-1,-1,-1,-1,-1],"loss_changes":[8.4340815E11,2.3246275E9,2.5057998E11,0E0,0E0,2.065854E11,0E0,7.24994E10,4.3104256E10,0E0,4.084087E10,3.4618573E8,1.8783322E10,2.8447347E10,1.987584E10,0E0,0E0,0E0,3.163054E8,0E0,0E0,0E0,0E0,0E0,0E0],"parents":[2147483647,0,0,1,1,2,2,5,5,7,7,8,8,10,10,11,11,12,12,13,13,14,14,18,18],"right_children":[2,4,6,-1,-1,8,-1,10,12,-1,14,16,18,20,22,-1,-1,-1,24,-1,-1,-1,-1,-1,-1],"split_conditions":[9.308958E-3,9.308958E-3,1.5056648E0,-6.990397E3,-2.5516605E4,-1.0178117E-1,2.5772068E4,-3.6380368E-1,5.9972107E-2,-6.951775E3,2.4013774E-2,4.6412203E-2,3.5051852E-2,1.9723866E-3,-3.1016078E-2,-1.6025925E4,-6.1823335E3,3.6487407E3,3.968254E-3,1.3934784E4,1.3964911E2,6.63157E3,1.6804031E4,-2.0382875E3,-8.224882E3],"split_indices":[1,1,7,0,0,3,0,3,4,0,1,1,1,0,8,0,0,0,0,0,0,0,0,0,0],"split_type":[0,0,0,0,0,0,0,0,0,0,0,0,0,0,0,0,0,0,0,0,0,0,0,0,0],"sum_hessian":[4.7E1,1E1,3.7E1,1E0,9E0,3.2E1,5E0,2.2E1,1E1,2E0,2E1,5E0,5E0,7E0,1.3E1,3E0,2E0,3E0,2E0,1E0,6E0,5E0,8E0,1E0,1E0],"tree_param":{"num_deleted":"0","num_feature":"10","num_nodes":"25","size_leaf_vector":"1"}},{"base_weights":[-8.6897003E2,-2.2316625E5,6.350311E4,-6.6408765E3,-2.3220113E4,3.0171348E4,2.3624396E4,7.920504E4,-7.5096484E4,-6.488325E3,9.601741E4,-1.2767742E5,-9.999469E3,6.668054E4,1.7655928E4,-1.4823981E4,-5.7701772E3,3.3750845E3,-6.5000062E4,7.616071E1,1.0256708E4,-1.936372E3,-7.8136377E3],"categories":[],"categories_nodes":[],"categories_segments":[],"categories_sizes":[],"default_left":[1,0,0,0,0,0,0,0,0,0,0,0,0,0,0,0,0,0,0,0,0,0,0],"id":7,"left_children":[1,3,5,-1,-1,7,-1,9,11,-1,13,15,17,19,-1,-1,-1,-1,21,-1,-1,-1,-1],"loss_changes":[7.010392E11,1.589248E8,2.1166694E11,0E0,0E0,1.7628312E11,0E0,6.1946642E10,3.6374774E10,0E0,3.7846712E10,7.949517E7,1.6631565E10,4.013713E10,0E0,0E0,0E0,0E0,2.854697E8,0E0,0E0,0E0,0E0],"parents":[2147483647,0,0,1,1,2,2,5,5,7,7,8,8,10,10,11,11,12,12,13,13,18,18],"right_children":[2,4,6,-1,-1,8,-1,10,12,-1,14,16,18,20,-1,-1,-1,-1,22,-1,-1,-1,-1],"split_conditions":[9.308958E-3,9.308958E-3,1.5056648E0,-6.6408765E3,-2.3220113E4,-1.0178117E-1,2.3624396E4,-3.6380368E-1,5.9972107E-2,-6.488325E3,8.722579E-2,4.6412203E-2,3.5051852E-2,-9.7308485E-3,1.7655928E4,-1.4823981E4,-5.7701772E3,3.3750845E3,3.968254E-3,7.616071E1,1.0256708E4,-1.936372E3,-7.8136377E3],"split_indices":[1,1,7,0,0,3,0,3,4,0,6,1,1,2,0,0,0,0,0,0,0,0,0],"split_type":[0,0,0,0,0,0,0,0,0,0,0,0,0,0,0,0,0,0,0,0,0,0,0],"sum_hessian":[4.7E1,1E1,3.7E1,1E0,9E0,3.2E1,5E0,2.2E1,1E1,2E0,2E1,5E0,5E0,1.6E1,4E0,3E0,2E0,3E0,2E0,6E0,1E1,1E0,1E0],"tree_param":{"num_deleted":"0","num_feature":"10","num_nodes":"23","size_leaf_vector":"1"}},{"base_weights":[-1.0259264E3,-2.0356426E4,5.7630586E4,2.6988498E4,2.1655697E4,7.2219336E4,-7.003857E4,-6.055771E3,8.774847E4,-1.1834204E4,-1.0062E4,6.06203E4,1.6243453E4,3.1219547E4,-6.1750062E4,6.963036E1,9.324282E3,3.5639375E3,8.980031E2,-1.8395531E3,-7.4229565E3],"categories":[],"categories_nodes":[],"categories_segments":[],"categories_sizes":[],"default_left":[1,0,0,0,0,0,0,0,0,0,0,0,0,0,0,0,0,0,0,0,0],"id":8,"left_children":[1,-1,3,5,-1,7,9,-1,11,-1,13,15,-1,17,19,-1,-1,-1,-1,-1,-1],"loss_changes":[5.819807E11,0E0,1.7920924E11,1.4988244E11,0E0,5.2737827E10,3.0677082E10,0E0,3.2701202E10,0E0,1.4730387E10,3.3167888E10,0E0,7.313664E7,2.5763635E8,0E0,0E0,0E0,0E0,0E0,0E0],"parents":[2147483647,0,0,2,2,3,3,5,5,6,6,8,8,10,10,11,11,13,13,14,14],"right_children":[2,-1,4,6,-1,8,10,-1,12,-1,14,16,-1,18,20,-1,-1,-1,-1,-1,-1],"split_conditions":[9.308958E-3,-2.0356426E4,1.5056648E0,-1.0178117E-1,2.1655697E4,-3.6380368E-1,5.9972107E-2,-6.055771E3,8.722579E-2,-1.1834204E4,3.5051852E-2,-9.7308485E-3,1.6243453E4,5.929691E-3,3.968254E-3,6.963036E1,9.324282E3,3.5639375E3,8.980031E2,-1.8395531E3,-7.4229565E3],"split_indices":[1,0,7,3,0,3,4,0,6,0,1,2,0,0,0,0,0,0,0,0,0],"split_type":[0,0,0,0,0,0,0,0,0,0,0,0,0,0,0,0,0,0,0,0,0],"sum_hessian":[4.7E1,1E1,3.7E1,3.2E1,5E0,2.2E1,1E1,2E0,2E1,5E0,5E0,1.6E1,4E0,3E0,2E0,6E0,1E1,2E0,1E0,1E0,1E0],"tree_param":{"num_deleted":"0","num_feature":"10","num_nodes":"21","size_leaf_vector":"1"}},{"base_weights":[-8.3487177E2,-1.8505839E5,5.251496E4,-5.291011E3,-1.9298223E4,1.9144316E4,1.7526184E5,6.546797E4,-5.965713E4,2.1309637E4,-4.4789893E3,-9.96654E3,9.850894E4,-8.4416805E4,1.0966422E4,-3.451129E3,1.7069844E4,-1.2645563E3,1.08032016E5,1.9017562E3,-9.97233E4,-1.7475751E3,2.6272397E3,2.4245188E3,6.5963336E2,1.2408362E4,1.31655E3,-3.5941392E3,-1.3080417E4],"categories":[],"categories_nodes":[],"categories_segments":[],"categories_sizes":[],"default_left":[1,0,0,0,0,0,0,0,0,0,0,0,0,0,0,0,0,0,0,0,0,0,0,0,0,0,0,0,0],"id":9,"left_children":[1,3,5,-1,-1,7,9,11,13,-1,-1,15,17,19,21,-1,23,-1,25,-1,27,-1,-1,-1,-1,-1,-1,-1,-1],"loss_changes":[4.8147644E11,1.3076398E9,1.5229816E11,0E0,0E0,1.1706712E11,7.614895E10,5.083037E10,2.1909148E10,0E0,0E0,5.234311E9,1.618559E10,1.6145449E10,2.2004705E9,0E0,1.4067482E8,0E0,1.8162254E10,0E0,1.1157897E10,0E0,0E0,0E0,0E0,0E0,0E0,0E0,0E0],"parents":[2147483647,0,0,1,1,2,2,5,5,6,6,7,7,8,8,11,11,12,12,13,13,14,14,16,16,18,18,20,20],"right_children":[2,4,6,-1,-1,8,10,12,14,-1,-1,16,18,20,22,-1,24,-1,26,-1,28,-1,-1,-1,-1,-1,-1,-1,-1],"split_conditions":[9.308958E-3,9.308958E-3,1.3348491E0,-5.291011E3,-1.9298223E4,-1.1035156E-1,6.3391444E-3,-1.46650495E-2,2.372797E-2,2.1309637E4,-4.4789893E3,1.5304846E-2,-1.146692E-1,1.5564202E-3,3.968254E-3,-3.451129E3,4.14651E-3,-1.2645563E3,-1.15244344E-1,1.9017562E3,1.0014306E-2,-1.7475751E3,2.6272397E3,2.4245188E3,6.5963336E2,1.2408362E4,1.31655E3,-3.5941392E3,-1.3080417E4],"split_indices":[1,1,7,0,0,3,0,2,2,0,0,1,8,0,0,0,0,0,3,0,4,0,0,0,0,0,0,0,0],"split_type":[0,0,0,0,0,0,0,0,0,0,0,0,0,0,0,0,0,0,0,0,0,0,0,0,0,0,0,0,0],"sum_hessian":[4.7E1,1E1,3.7E1,1E0,9E0,3E1,7E0,1.9E1,1.1E1,6E0,1E0,6E0,1.3E1,8E0,3E0,3E0,3E0,1E0,1.2E1,1E0,7E0,1E0,2E0,1E0,2E0,1E1,2E0,3E0,4E0],"tree_param":{"num_deleted":"0","num_feature":"10","num_nodes":"29","size_leaf_vector":"1"}},{"base_weights":[-9.505208E2,-1.6878794E5,4.765901E4,-5.026461E3,-1.756138E4,1.6677633E4,1.6175447E5,5.8759844E4,-5.4849188E4,4.974525E4,2.1901096E4,1.3530327E4,2.422515E4,-7.7616555E4,1.00896875E4,7.415931E3,-1.1748469E3,5.6739938E4,-3.4003688E4,1.8066688E3,-9.18353E4,-1.6601969E3,2.4520896E4,9.70733E3,2.55866E3,-5.3877144E3,-1.0597672E3,-3.3245798E3,-1.2033983E4,2.9563938E3,7.2174066E2],"categories":[],"categories_nodes":[],"categories_segments":[],"categories_sizes":[],"default_left":[1,0,0,0,0,0,0,0,0,0,0,0,0,0,0,0,0,0,0,0,0,0,0,0,0,0,0,0,0,0,0],"id":10,"left_children":[1,3,5,-1,-1,7,9,11,13,15,-1,-1,17,19,21,-1,-1,23,25,-1,27,-1,29,-1,-1,-1,-1,-1,-1,-1,-1],"loss_changes":[3.996522E11,7.212237E7,1.31626025E11,0E0,0E0,9.653313E10,4.0411283E10,4.9590338E10,1.8524975E10,6.876504E9,0E0,0E0,3.032884E10,1.3903622E10,1.9478666E9,0E0,0E0,1.0081413E10,2.2199782E9,0E0,9.359741E9,0E0,4.8411776E7,0E0,0E0,0E0,0E0,0E0,0E0,0E0,0E0],"parents":[2147483647,0,0,1,1,2,2,5,5,6,6,7,7,8,8,9,9,12,12,13,13,14,14,17,17,18,18,20,20,22,22],"right_children":[2,4,6,-1,-1,8,10,12,14,16,-1,-1,18,20,22,-1,-1,24,26,-1,28,-1,30,-1,-1,-1,-1,-1,-1,-1,-1],"split_conditions":[9.308958E-3,9.308958E-3,8.4305055E-2,-5.026461E3,-1.756138E4,-1.1035156E-1,3.9825583E-1,3.2520324E-3,2.372797E-2,5.8479533E-3,2.1901096E4,1.3530327E4,2.9354838E-1,1.5564202E-3,3.968254E-3,7.415931E3,-1.1748469E3,2.8572498E-2,-3.6380368E-1,1.8066688E3,1.0014306E-2,-1.6601969E3,5.929691E-3,9.70733E3,2.55866E3,-5.3877144E3,-1.0597672E3,-3.3245798E3,-1.2033983E4,2.9563938E3,7.2174066E2],"split_indices":[1,1,6,0,0,3,7,0,2,0,0,0,7,0,0,0,0,6,3,0,4,0,0,0,0,0,0,0,0,0,0],"split_type":[0,0,0,0,0,0,0,0,0,0,0,0,0,0,0,0,0,0,0,0,0,0,0,0,0,0,0,0,0,0,0],"sum_hessian":[4.7E1,1E1,3.7E1,1E0,9E0,3E1,7E0,1.9E1,1.1E1,3E0,4E0,5E0,1.4E1,8E0,3E0,2E0,1E0,9E0,5E0,1E0,7E0,1E0,2E0,3E0,6E0,2E0,3E0,3E0,4E0,1E0,1E0],"tree_param":{"num_deleted":"0","num_feature":"10","num_nodes":"31","size_leaf_vector":"1"}},{"base_weights":[-5.769499E2,-1.539626E5,4.383934E4,-1.840456E4,-9.821915E3,1.5261958E4,1.4909678E5,5.133693E4,-5.49959E4,2.320625E4,1.8719258E4,1.2402801E4,2.0869219E4,-9.3616766E4,-7.209047E3,4.5970405E3,-1.1161031E3,4.7634086E4,-3.1677906E4,-1.0941038E4,-4.1353022E3,2.6052812E4,-4.9155176E3,6.088225E2,7.050483E3,-4.008545E3,5.1799066E2,3.0166062E3,6.8565314E2],"categories":[],"categories_nodes":[],"categories_segments":[],"categories_sizes":[],"default_left":[1,1,0,0,0,0,0,0,0,0,0,0,0,0,0,0,0,0,0,0,0,0,0,0,0,0,0,0,0],"id":11,"left_children":[1,3,5,-1,-1,7,9,11,13,15,-1,-1,17,19,21,-1,-1,23,25,-1,-1,27,-1,-1,-1,-1,-1,-1,-1],"loss_changes":[3.3376502E11,3.694428E8,1.120278E11,0E0,0E0,8.139438E10,3.4023162E10,4.3920978E10,1.962638E10,2.8601037E9,0E0,0E0,2.4011616E10,4.281467E8,9.651869E9,0E0,0E0,1.0022781E10,2.0669409E9,0E0,0E0,1.0900173E8,0E0,0E0,0E0,0E0,0E0,0E0,0E0],"parents":[2147483647,0,0,1,1,2,2,5,5,6,6,7,7,8,8,9,9,12,12,13,13,14,14,17,17,18,18,21,21],"right_children":[2,4,6,-1,-1,8,10,12,14,16,-1,-1,18,20,22,-1,-1,24,26,-1,-1,28,-1,-1,-1,-1,-1,-1,-1],"split_conditions":[9.308958E-3,-7.7922076E-2,8.4305055E-2,-1.840456E4,-9.821915E3,-1.0178117E-1,2.4841341E-1,3.2520324E-3,5.9972107E-2,5.8479533E-3,1.8719258E4,1.2402801E4,2.9354838E-1,4.6412203E-2,3.5051852E-2,4.5970405E3,-1.1161031E3,2.4013774E-2,1.4492754E-2,-1.0941038E4,-4.1353022E3,5.929691E-3,-4.9155176E3,6.088225E2,7.050483E3,-4.008545E3,5.1799066E2,3.0166062E3,6.8565314E2],"split_indices":[1,3,6,0,0,3,7,0,4,0,0,0,7,1,1,0,0,1,0,0,0,0,0,0,0,0,0,0,0],"split_type":[0,0,0,0,0,0,0,0,0,0,0,0,0,0,0,0,0,0,0,0,0,0,0,0,0,0,0,0,0],"sum_hessian":[4.7E1,1E1,3.7E1,5E0,5E0,3E1,7E0,2E1,1E1,2E0,5E0,5E0,1.5E1,5E0,5E0,1E0,1E0,1E1,5E0,3E0,2E0,3E0,2E0,4E0,6E0,4E0,1E0,2E0,1E0],"tree_param":{"num_deleted":"0","num_feature":"10","num_nodes":"29","size_leaf_vector":"1"}},{"base_weights":[-6.3893097E2,-1.4113238E5,4.004704E4,-1.6870848E4,-9.003423E3,1.3744853E4,1.3696212E5,5.190102E4,-4.307915E4,4.0780953E4,1.8651467E4,-4.104361E4,7.189336E4,-7.245032E4,-7.5538125E3,6.144325E3,-1.0602969E3,-4.7612983E3,-1.066775E3,1.1369233E4,4.2558164E4,1.5655032E3,-8.974372E4,-2.9874953E4,1.6655781E4,7.9414033E3,-1.3907292E2,-3.8596145E3,-1.0566847E4,1.3962501E1,-3.9926355E3,2.657744E3,4.4894165E2],"categories":[],"categories_nodes":[],"categories_segments":[],"categories_sizes":[],"default_left":[1,1,0,0,0,0,0,0,0,0,0,0,0,0,0,0,0,0,0,0,0,0,0,0,0,0,0,0,0,0,0,0,0],"id":12,"left_children":[1,3,5,-1,-1,7,9,11,13,15,-1,17,19,21,23,-1,-1,-1,-1,-1,25,-1,27,29,31,-1,-1,-1,-1,-1,-1,-1,-1],"loss_changes":[2.8002533E11,3.1042765E8,9.4982455E10,0E0,0E0,6.944962E10,3.0521917E10,3.8256206E10,1.3017194E10,4.8983204E9,0E0,2.902779E8,1.4780359E10,1.2070425E10,4.280291E9,0E0,0E0,0E0,0E0,0E0,1.7927965E10,0E0,8.086774E8,1.2123287E9,3.6352486E8,0E0,0E0,0E0,0E0,0E0,0E0,0E0,0E0],"parents":[2147483647,0,0,1,1,2,2,5,5,6,6,7,7,8,8,9,9,11,11,12,12,13,13,14,14,20,20,22,22,23,23,24,24],"right_children":[2,4,6,-1,-1,8,10,12,14,16,-1,18,20,22,24,-1,-1,-1,-1,-1,26,-1,28,30,32,-1,-1,-1,-1,-1,-1,-1,-1],"split_conditions":[9.308958E-3,-7.7922076E-2,8.4305055E-2,-1.6870848E4,-9.003423E3,-1.12716764E-1,3.9825583E-1,-2.6976743E-1,9.031582E-3,5.8479533E-3,1.8651467E4,1.4492754E-2,3.2520324E-3,1.5564202E-3,3.968254E-3,6.144325E3,-1.0602969E3,-4.7612983E3,-1.066775E3,1.1369233E4,2.353352E-1,1.5655032E3,-4.840271E-3,3.292181E-3,5.929691E-3,7.9414033E3,-1.3907292E2,-3.8596145E3,-1.0566847E4,1.3962501E1,-3.9926355E3,2.657744E3,4.4894165E2],"split_indices":[1,3,6,0,0,3,7,3,2,0,0,0,0,0,0,0,0,0,0,0,7,0,4,0,0,0,0,0,0,0,0,0,0],"split_type":[0,0,0,0,0,0,0,0,0,0,0,0,0,0,0,0,0,0,0,0,0,0,0,0,0,0,0,0,0,0,0,0,0],"sum_hessian":[4.7E1,1E1,3.7E1,5E0,5E0,3E1,7E0,1.8E1,1.2E1,3E0,4E0,3E0,1.5E1,6E0,6E0,2E0,1E0,2E0,1E0,5E0,1E1,1E0,5E0,3E0,3E0,5E0,5E0,2E0,3E0,1E0,2E0,1E0,2E0],"tree_param":{"num_deleted":"0","num_feature":"10","num_nodes":"33","size_leaf_vector":"1"}},{"base_weights":[-6.2770575E2,-1.2937135E5,3.665671E4,-1.5464944E4,-8.253137E3,1.2357806E4,1.26232875E5,4.7413207E4,-3.9827613E4,3.7973875E4,1.715935E4,-3.8396266E4,6.590225E4,-6.704257E4,-6.923E3,5.7347046E3,-1.00728125E3,-4.443877E3,-1.0134375E3,1.0421796E4,3.901166E4,1.4872281E3,-8.317376E4,-2.7882125E4,1.5766875E4,7.279622E3,-1.27484375E2,-3.6023064E3,-9.774334E3,1.3265625E1,-3.7264607E3,2.5248562E3,4.190125E2],"categories":[],"categories_nodes":[],"categories_segments":[],"categories_sizes":[],"default_left":[1,1,0,0,0,0,0,0,0,0,0,0,0,0,0,0,0,0,0,0,0,0,0,0,0,0,0,0,0,0,0,0,0],"id":13,"left_children":[1,3,5,-1,-1,7,9,11,13,15,-1,17,19,21,23,-1,-1,-1,-1,-1,25,-1,27,29,31,-1,-1,-1,-1,-1,-1,-1,-1],"loss_changes":[2.3514866E11,2.6083328E8,8.1150935E10,0E0,0E0,5.8599158E10,2.5511789E10,3.2674566E10,1.1177331E10,4.3009116E9,0E0,2.3273165E8,1.2419596E10,1.0486671E10,3.7685335E9,0E0,0E0,0E0,0E0,0E0,1.5064485E10,0E0,6.007767E8,1.0563359E9,3.3327392E8,0E0,0E0,0E0,0E0,0E0,0E0,0E0,0E0],"parents":[2147483647,0,0,1,1,2,2,5,5,6,6,7,7,8,8,9,9,11,11,12,12,13,13,14,14,20,20,22,22,23,23,24,24],"right_children":[2,4,6,-1,-1,8,10,12,14,16,-1,18,20,22,24,-1,-1,-1,-1,-1,26,-1,28,30,32,-1,-1,-1,-1,-1,-1,-1,-1],"split_conditions":[9.308958E-3,-7.7922076E-2,8.4305055E-2,-1.5464944E4,-8.253137E3,-1.12716764E-1,3.9825583E-1,-2.6976743E-1,9.031582E-3,5.8479533E-3,1.715935E4,1.4492754E-2,3.2520324E-3,1.5564202E-3,3.968254E-3,5.7347046E3,-1.00728125E3,-4.443877E3,-1.0134375E3,1.0421796E4,2.353352E-1,1.4872281E3,-4.840271E-3,3.292181E-3,5.929691E-3,7.279622E3,-1.27484375E2,-3.6023064E3,-9.774334E3,1.3265625E1,-3.7264607E3,2.5248562E3,4.190125E2],"split_indices":[1,3,6,0,0,3,7,3,2,0,0,0,0,0,0,0,0,0,0,0,7,0,4,0,0,0,0,0,0,0,0,0,0],"split_type":[0,0,0,0,0,0,0,0,0,0,0,0,0,0,0,0,0,0,0,0,0,0,0,0,0,0,0,0,0,0,0,0,0],"sum_hessian":[4.7E1,1E1,3.7E1,5E0,5E0,3E1,7E0,1.8E1,1.2E1,3E0,4E0,3E0,1.5E1,6E0,6E0,2E0,1E0,2E0,1E0,5E0,1E1,1E0,5E0,3E0,3E0,5E0,5E0,2E0,3E0,1E0,2E0,1E0,2E0],"tree_param":{"num_deleted":"0","num_feature":"10","num_nodes":"33","size_leaf_vector":"1"}},{"base_weights":[-6.143841E2,-1.1859041E5,3.355274E4,-3.421214E3,-1.23607016E5,1.1104537E4,1.1634542E5,-3.5686033E3,-1.2941091E5,4.33096E4,-3.6818598E4,3.5358344E4,1.5786601E4,-3.6642532E3,-1.3642663E4,-3.592097E4,6.0410395E4,-5.1986434E4,1.0305641E4,5.352392E3,-9.5691876E2,-4.1476187E3,-9.627656E2,1.0173433E4,3.815789E4,-6.854672E4,9.503125E3,-9.454594E2,2.0043916E4,6.672987E3,8.2165E2,-7.8278086E3,-2.135625E1,1.4128656E3,1.2603126E1,2.3986125E3,6.0797504E2],"categories":[],"categories_nodes":[],"categories_segments":[],"categories_sizes":[],"default_left":[1,0,0,0,0,0,0,0,0,0,0,0,0,0,0,0,0,0,0,0,0,0,0,0,0,0,0,0,0,0,0,0,0,0,0,0,0],"id":14,"left_children":[1,3,5,-1,7,9,11,-1,13,15,17,19,-1,-1,-1,21,23,25,27,-1,-1,-1,-1,-1,29,31,33,-1,35,-1,-1,-1,-1,-1,-1,-1,-1],"loss_changes":[1.974623E11,4.2736026E8,6.933281E10,0E0,4.846715E8,4.9439E10,2.1319156E10,0E0,8.58538E8,2.7913204E10,9.827799E9,3.7767173E9,0E0,0E0,0E0,1.8494157E8,1.0831012E10,1.0834254E10,9.592296E8,0E0,0E0,0E0,0E0,0E0,9.717531E9,5.303083E9,1.2834147E8,0E0,1.9319424E7,0E0,0E0,0E0,0E0,0E0,0E0,0E0,0E0],"parents":[2147483647,0,0,1,1,2,2,4,4,5,5,6,6,8,8,9,9,10,10,11,11,15,15,16,16,17,17,18,18,24,24,25,25,26,26,28,28],"right_children":[2,4,6,-1,8,10,12,-1,14,16,18,20,-1,-1,-1,22,24,26,28,-1,-1,-1,-1,-1,30,32,34,-1,36,-1,-1,-1,-1,-1,-1,-1,-1],"split_conditions":[9.308958E-3,9.308958E-3,8.4305055E-2,-3.421214E3,4.8405847E-1,-1.12716764E-1,3.9825583E-1,-3.5686033E3,6.978367E-3,-2.6976743E-1,2.372797E-2,5.8479533E-3,1.5786601E4,-3.6642532E3,-1.3642663E4,1.4492754E-2,1.9723866E-3,4.5621425E-2,3.968254E-3,5.352392E3,-9.5691876E2,-4.1476187E3,-9.627656E2,1.0173433E4,2.353352E-1,7.3126145E-3,1.5564202E-3,-9.454594E2,5.929691E-3,6.672987E3,8.2165E2,-7.8278086E3,-2.135625E1,1.4128656E3,1.2603126E1,2.3986125E3,6.0797504E2],"split_indices":[1,1,6,0,9,3,7,0,0,3,2,0,0,0,0,0,0,6,0,0,0,0,0,0,7,0,0,0,0,0,0,0,0,0,0,0,0],"split_type":[0,0,0,0,0,0,0,0,0,0,0,0,0,0,0,0,0,0,0,0,0,0,0,0,0,0,0,0,0,0,0,0,0,0,0,0,0],"sum_hessian":[4.7E1,1E1,3.7E1,1E0,9E0,3E1,7E0,1E0,8E0,1.8E1,1.2E1,3E0,4E0,1E0,7E0,3E0,1.5E1,9E0,3E0,2E0,1E0,2E0,1E0,4E0,1.1E1,7E0,2E0,1E0,2E0,5E0,6E0,6E0,1E0,1E0,1E0,1E0,1E0],"tree_param":{"num_deleted":"0","num_feature":"10","num_nodes":"37","size_leaf_vector":"1"}},{"base_weights":[-4.6793784E2,-1.08940164E5,3.094423E4,-1.3039312E4,-6.9330522E3,1.3337643E4,1.2262309E5,4.1680117E4,-3.3472324E4,3.185272E3,1.3440662E5,1.0144319E4,2.165097E4,-4.743016E4,9.790344E3,4.0526814E3,1.4774487E4,-5.1755874E3,5.2477797E4,-6.2673184E4,9.027958E3,-8.981875E2,1.9041709E4,3.682975E3,-2.0280641E3,6.2587847E3,-9.146281E2,-2.1403672E3,-8.315416E3,1.3422219E3,1.1971875E1,2.2786814E3,5.77575E2],"categories":[],"categories_nodes":[],"categories_segments":[],"categories_sizes":[],"default_left":[1,1,0,0,0,0,0,0,0,0,0,0,0,0,0,0,0,0,0,0,0,0,0,0,0,0,0,0,0,0,0,0,0],"id":15,"left_children":[1,3,5,-1,-1,7,9,11,13,-1,15,-1,17,19,21,-1,-1,23,25,27,29,-1,31,-1,-1,-1,-1,-1,-1,-1,-1,-1,-1],"loss_changes":[1.6692376E11,3.0696243E8,5.970227E10,0E0,0E0,4.5176566E10,2.1363589E9,2.2940725E10,8.314451E9,0E0,2.7333427E8,0E0,1.4330223E10,9.171737E9,8.657049E8,0E0,0E0,7.0918595E9,5.5566275E9,4.98211E9,1.158285E8,0E0,1.743616E7,0E0,0E0,0E0,0E0,0E0,0E0,0E0,0E0,0E0,0E0],"parents":[2147483647,0,0,1,1,2,2,5,5,6,6,7,7,8,8,10,10,12,12,13,13,14,14,17,17,18,18,19,19,20,20,22,22],"right_children":[2,4,6,-1,-1,8,10,12,14,-1,16,-1,18,20,22,-1,-1,24,26,28,30,-1,32,-1,-1,-1,-1,-1,-1,-1,-1,-1,-1],"split_conditions":[9.308958E-3,-7.7922076E-2,1.5056648E0,-1.3039312E4,-6.9330522E3,-1.12716764E-1,-3.8182557E-2,3.5273368E-3,2.372797E-2,3.185272E3,4.103427E-2,1.0144319E4,-4.3570444E-2,4.5621425E-2,3.968254E-3,4.0526814E3,1.4774487E4,1.9366993E-1,1.2352611E-2,1.0014306E-2,1.5564202E-3,-8.981875E2,5.929691E-3,3.682975E3,-2.0280641E3,6.2587847E3,-9.146281E2,-2.1403672E3,-8.315416E3,1.3422219E3,1.1971875E1,2.2786814E3,5.77575E2],"split_indices":[1,3,7,0,0,3,2,0,2,0,6,0,8,6,0,0,0,7,0,4,0,0,0,0,0,0,0,0,0,0,0,0,0],"split_type":[0,0,0,0,0,0,0,0,0,0,0,0,0,0,0,0,0,0,0,0,0,0,0,0,0,0,0,0,0,0,0,0,0],"sum_hessian":[4.7E1,1E1,3.7E1,5E0,5E0,3.2E1,5E0,2E1,1.2E1,1E0,4E0,4E0,1.6E1,9E0,3E0,1E0,3E0,9E0,7E0,7E0,2E0,1E0,2E0,2E0,7E0,6E0,1E0,3E0,4E0,1E0,1E0,1E0,1E0],"tree_param":{"num_deleted":"0","num_feature":"10","num_nodes":"33","size_leaf_vector":"1"}},{"base_weights":[-1.7031804E2,-9.986182E4,2.8692229E4,-1.1952702E4,-6.3552983E3,1.2306896E4,1.1402952E5,3.8328445E4,-3.0674598E4,3.0260095E3,1.247314E4,9.3327734E4,1.989757E4,-5.266381E4,-4.3033037E3,4.165658E3,1.1388965E4,4.841842E4,-4.9088687E3,1.2751094E3,-6.569148E4,-2.1531656E4,1.4000875E4,-1.8854166E0,6.4567324E3,-2.2217698E3,2.6608796E3,-2.6976062E3,-7.8305166E3,-3.464425E3,-5.612709E2,2.1647468E3,4.2361874E2],"categories":[],"categories_nodes":[],"categories_segments":[],"categories_sizes":[],"default_left":[1,1,0,0,0,0,0,0,0,0,0,0,0,0,0,0,0,0,0,0,0,0,0,0,0,0,0,0,0,0,0,0,0],"id":16,"left_children":[1,3,5,-1,-1,7,9,11,13,-1,-1,15,17,19,21,-1,-1,23,25,-1,27,29,31,-1,-1,-1,-1,-1,-1,-1,-1,-1,-1],"loss_changes":[1.4097808E11,2.5792512E8,5.1731284E10,0E0,0E0,3.8084395E10,1.6045507E9,1.9430396E10,7.311863E9,0E0,0E0,5.680292E8,1.2265191E10,6.803063E9,2.508918E9,0E0,0E0,6.2588887E9,6.046525E9,0E0,8.176988E8,6.405066E8,2.0696365E8,0E0,0E0,0E0,0E0,0E0,0E0,0E0,0E0,0E0,0E0],"parents":[2147483647,0,0,1,1,2,2,5,5,6,6,7,7,8,8,11,11,12,12,13,13,14,14,17,17,18,18,20,20,21,21,22,22],"right_children":[2,4,6,-1,-1,8,10,12,14,-1,-1,16,18,20,22,-1,-1,24,26,-1,28,30,32,-1,-1,-1,-1,-1,-1,-1,-1,-1,-1],"split_conditions":[9.308958E-3,-7.7922076E-2,1.5056648E0,-1.1952702E4,-6.3552983E3,-1.12716764E-1,-3.8182557E-2,3.5273368E-3,9.031582E-3,3.0260095E3,1.247314E4,1.6116035E-3,2.353352E-1,1.5564202E-3,3.968254E-3,4.165658E3,1.1388965E4,1.8409511E-2,-4.602214E-2,1.2751094E3,-4.840271E-3,4.741379E1,5.929691E-3,-1.8854166E0,6.4567324E3,-2.2217698E3,2.6608796E3,-2.6976062E3,-7.8305166E3,-3.464425E3,-5.612709E2,2.1647468E3,4.2361874E2],"split_indices":[1,3,7,0,0,3,2,0,2,0,0,0,7,0,0,0,0,1,8,0,4,5,0,0,0,0,0,0,0,0,0,0,0],"split_type":[0,0,0,0,0,0,0,0,0,0,0,0,0,0,0,0,0,0,0,0,0,0,0,0,0,0,0,0,0,0,0,0,0],"sum_hessian":[4.7E1,1E1,3.7E1,5E0,5E0,3.2E1,5E0,2E1,1.2E1,1E0,4E0,4E0,1.6E1,6E0,6E0,2E0,2E0,7E0,9E0,1E0,5E0,3E0,3E0,2E0,5E0,6E0,3E0,2E0,3E0,1E0,2E0,1E0,2E0],"tree_param":{"num_deleted":"0","num_feature":"10","num_nodes":"33","size_leaf_vector":"1"}},{"base_weights":[3.3156902E1,-9.154E4,2.6540303E4,-2.5857344E3,-9.552253E4,8.335044E3,9.376814E4,-2.7257556E3,-1.0007891E5,3.0003297E4,-3.378935E4,2.7227453E4,1.2824706E4,-2.8166235E3,-1.0554722E4,-3.1252422E4,4.194883E4,-6.073247E4,-1.2146771E3,4.0947146E3,-6.9658124E2,-3.5877876E3,-8.6880316E2,7.430923E3,2.3786428E4,-7.2215454E3,-2.5177666E3,1.897689E4,-2.7731875E4,3.9643289E3,-1.3204584E2,2.178575E3,5.275156E2,-8.2521564E2,-3.3345657E3],"categories":[],"categories_nodes":[],"categories_segments":[],"categories_sizes":[],"default_left":[1,0,0,0,0,0,0,0,0,0,0,0,0,0,0,0,0,0,0,0,0,0,0,0,0,0,0,0,0,0,0,0,0,0,0],"id":17,"left_children":[1,3,5,-1,7,9,11,-1,13,15,17,19,-1,-1,-1,21,23,25,27,-1,-1,-1,-1,-1,29,-1,-1,31,33,-1,-1,-1,-1,-1,-1],"loss_changes":[1.1894196E11,4.074619E8,4.5726646E10,0E0,3.8250086E8,2.9309417E10,1.4862172E10,0E0,5.662966E8,1.6677378E10,9.580525E9,2.1617144E9,0E0,0E0,0E0,1.0577408E8,8.811817E9,6.3143526E8,3.7388073E9,0E0,0E0,0E0,0E0,0E0,5.2278605E9,0E0,0E0,3.9021824E7,5.2891136E7,0E0,0E0,0E0,0E0,0E0,0E0],"parents":[2147483647,0,0,1,1,2,2,4,4,5,5,6,6,8,8,9,9,10,10,11,11,15,15,16,16,17,17,18,18,24,24,27,27,28,28],"right_children":[2,4,6,-1,8,10,12,-1,14,16,18,20,-1,-1,-1,22,24,26,28,-1,-1,-1,-1,-1,30,-1,-1,32,34,-1,-1,-1,-1,-1,-1],"split_conditions":[9.308958E-3,9.308958E-3,8.4305055E-2,-2.5857344E3,4.8405847E-1,-1.0178117E-1,3.9825583E-1,-2.7257556E3,6.978367E-3,-2.6976743E-1,5.9972107E-2,5.8479533E-3,1.2824706E4,-2.8166235E3,-1.0554722E4,1.4492754E-2,3.2520324E-3,4.6412203E-2,3.5051852E-2,4.0947146E3,-6.9658124E2,-3.5877876E3,-8.6880316E2,7.430923E3,2.353352E-1,-7.2215454E3,-2.5177666E3,5.929691E-3,3.968254E-3,3.9643289E3,-1.3204584E2,2.178575E3,5.275156E2,-8.2521564E2,-3.3345657E3],"split_indices":[1,1,6,0,9,3,7,0,0,3,4,0,0,0,0,0,0,1,1,0,0,0,0,0,7,0,0,0,0,0,0,0,0,0,0],"split_type":[0,0,0,0,0,0,0,0,0,0,0,0,0,0,0,0,0,0,0,0,0,0,0,0,0,0,0,0,0,0,0,0,0,0,0],"sum_hessian":[4.7E1,1E1,3.7E1,1E0,9E0,3E1,7E0,1E0,8E0,2E1,1E1,3E0,4E0,1E0,7E0,3E0,1.7E1,5E0,5E0,2E0,1E0,2E0,1E0,5E0,1.2E1,3E0,2E0,3E0,2E0,7E0,5E0,2E0,1E0,1E0,1E0],"tree_param":{"num_deleted":"0","num_feature":"10","num_nodes":"35","size_leaf_vector":"1"}},{"base_weights":[-1.1278711E2,-8.408444E4,2.4197764E4,-5.6810093E3,-1.0545164E4,7.3600474E3,8.6419195E4,3.0510422E4,-2.7041271E4,3.4867914E4,1.2925351E4,-2.9241328E4,4.3541457E4,-3.8483184E4,8.323828E3,4.6893657E3,-6.617531E2,-3.348602E3,-8.253625E2,8.852725E3,5.436664E4,-5.046309E4,6.2909585E3,-7.8395624E2,1.63248125E4,2.5031626E3,-1.4499063E2,-7.565719E2,6.068465E3,-1.8287688E3,-6.6110796E3,1.102425E3,-1.5878125E2,1.9475813E3,5.0114062E2],"categories":[],"categories_nodes":[],"categories_segments":[],"categories_sizes":[],"default_left":[1,0,0,0,0,0,0,0,0,0,0,0,0,0,0,0,0,0,0,0,0,0,0,0,0,0,0,0,0,0,0,0,0,0,0],"id":18,"left_children":[1,3,5,-1,-1,7,9,11,13,15,-1,17,19,21,23,-1,-1,-1,-1,25,27,29,31,-1,33,-1,-1,-1,-1,-1,-1,-1,-1,-1,-1],"loss_changes":[1.00021715E11,4.198236E8,3.9175287E10,0E0,0E0,2.5513544E10,1.3158502E10,1.6067127E10,5.580705E9,2.8047867E9,0E0,7.996416E7,5.5268966E9,5.681361E9,6.4527155E8,0E0,0E0,0E0,0E0,8.697198E8,5.1545907E9,2.8187566E9,1.2938201E8,0E0,9.344384E6,0E0,0E0,0E0,0E0,0E0,0E0,0E0,0E0,0E0,0E0],"parents":[2147483647,0,0,1,1,2,2,5,5,6,6,7,7,8,8,9,9,11,11,12,12,13,13,14,14,19,19,20,20,21,21,22,22,24,24],"right_children":[2,4,6,-1,-1,8,10,12,14,16,-1,18,20,22,24,-1,-1,-1,-1,26,28,30,32,-1,34,-1,-1,-1,-1,-1,-1,-1,-1,-1,-1],"split_conditions":[9.308958E-3,1.1402508E-2,8.4305055E-2,-5.6810093E3,-1.0545164E4,-1.12716764E-1,6.7404425E-1,-2.6976743E-1,2.372797E-2,7.6294276E-3,1.2925351E4,1.4492754E-2,5.9675896E-1,4.5621425E-2,3.968254E-3,4.6893657E3,-6.617531E2,-3.348602E3,-8.253625E2,3.2520324E-3,-2.3726115E-1,1.0014306E-2,1.5564202E-3,-7.8395624E2,5.929691E-3,2.5031626E3,-1.4499063E2,-7.565719E2,6.068465E3,-1.8287688E3,-6.6110796E3,1.102425E3,-1.5878125E2,1.9475813E3,5.0114062E2],"split_indices":[1,0,6,0,0,3,7,3,2,0,0,0,9,6,0,0,0,0,0,0,3,4,0,0,0,0,0,0,0,0,0,0,0,0,0],"split_type":[0,0,0,0,0,0,0,0,0,0,0,0,0,0,0,0,0,0,0,0,0,0,0,0,0,0,0,0,0,0,0,0,0,0,0],"sum_hessian":[4.7E1,1E1,3.7E1,6E0,4E0,3E1,7E0,1.8E1,1.2E1,4E0,3E0,3E0,1.5E1,9E0,3E0,3E0,1E0,2E0,1E0,4E0,1.1E1,7E0,2E0,1E0,2E0,1E0,3E0,1E0,1E1,3E0,4E0,1E0,1E0,1E0,1E0],"tree_param":{"num_deleted":"0","num_feature":"10","num_nodes":"35","size_leaf_vector":"1"}},{"base_weights":[-1.3501465E2,-7.715109E4,2.2162666E4,-5.194065E3,-9.70155E4,6.5487188E3,7.989638E4,-1.0653722E4,-2.9464314E3,2.7643398E4,-2.4785715E4,3.2186637E4,1.1955947E4,-2.7360688E4,3.9666707E4,-4.2573137E4,-3.4574731E3,4.3376626E3,-6.2866565E2,-3.1253625E3,-7.8409375E2,6.3653957E4,2.2976688E4,1.0473031E3,-5.315967E4,-1.7475875E4,1.1425297E4,2.8418147E3,7.416733E3,4.4147144E3,-2.0232188E2,-2.2279958E3,-6.302954E3,-1.5084375E2,-2.2295542E3,-4.1228127E1,1.5508583E3],"categories":[],"categories_nodes":[],"categories_segments":[],"categories_sizes":[],"default_left":[1,0,0,0,0,0,0,0,0,0,0,0,0,0,0,0,0,0,0,0,0,0,0,0,0,0,0,0,0,0,0,0,0,0,0,0,0],"id":19,"left_children":[1,3,5,-1,7,9,11,-1,-1,13,15,17,-1,19,21,23,25,-1,-1,-1,-1,27,29,-1,31,33,35,-1,-1,-1,-1,-1,-1,-1,-1,-1,-1],"loss_changes":[8.413932E10,4.6964326E8,3.3731932E10,0E0,7.697203E7,2.1175845E10,1.1290309E10,0E0,0E0,1.3650601E10,4.7846733E9,2.4252723E9,0E0,5.8898944E7,4.9430057E9,4.487768E9,1.6600956E9,0E0,0E0,0E0,0E0,1.1498496E8,5.9111736E9,0E0,4.243753E8,2.7419955E8,1.9973882E8,0E0,0E0,0E0,0E0,0E0,0E0,0E0,0E0,0E0,0E0],"parents":[2147483647,0,0,1,1,2,2,4,4,5,5,6,6,9,9,10,10,11,11,13,13,14,14,15,15,16,16,21,21,22,22,24,24,25,25,26,26],"right_children":[2,4,6,-1,8,10,12,-1,-1,14,16,18,-1,20,22,24,26,-1,-1,-1,-1,28,30,-1,32,34,36,-1,-1,-1,-1,-1,-1,-1,-1,-1,-1],"split_conditions":[9.308958E-3,1.1402508E-2,8.4305055E-2,-5.194065E3,4.255319E-2,-1.12716764E-1,6.7404425E-1,-1.0653722E4,-2.9464314E3,-2.6976743E-1,9.031582E-3,7.6294276E-3,1.1955947E4,1.4492754E-2,3.2520324E-3,1.5564202E-3,3.968254E-3,4.3376626E3,-6.2866565E2,-3.1253625E3,-7.8409375E2,6.168182E-1,2.353352E-1,1.0473031E3,-4.840271E-3,3.292181E-3,2.4013774E-2,2.8418147E3,7.416733E3,4.4147144E3,-2.0232188E2,-2.2279958E3,-6.302954E3,-1.5084375E2,-2.2295542E3,-4.1228127E1,1.5508583E3],"split_indices":[1,0,6,0,0,3,7,0,0,3,2,0,0,0,0,0,0,0,0,0,0,9,7,0,4,0,1,0,0,0,0,0,0,0,0,0,0],"split_type":[0,0,0,0,0,0,0,0,0,0,0,0,0,0,0,0,0,0,0,0,0,0,0,0,0,0,0,0,0,0,0,0,0,0,0,0,0],"sum_hessian":[4.7E1,1E1,3.7E1,6E0,4E0,3E1,7E0,3E0,1E0,1.8E1,1.2E1,4E0,3E0,3E0,1.5E1,6E0,6E0,3E0,1E0,2E0,1E0,5E0,1E1,1E0,5E0,3E0,3E0,2E0,3E0,5E0,5E0,2E0,3E0,1E0,2E0,1E0,2E0],"tree_param":{"num_deleted":"0","num_feature":"10","num_nodes":"37","size_leaf_vector":"1"}},{"base_weights":[-1.4072559E2,-7.1144555E4,2.0416717E4,-9.013356E3,-4.741747E3,5.9650483E3,7.386484E4,2.5434932E4,-2.2949783E4,2.9709762E4,1.1059249E4,-2.5601969E4,3.6604473E4,-3.7320203E4,3.5739582E1,4.012336E3,-5.9723126E2,-2.9170042E3,-7.448875E2,5.8998312E4,2.106197E4,-1.2164375E2,-4.915205E4,1.58306875E4,-2.1036104E4,6.8881406E3,2.615475E3,4.046824E3,-1.8546251E2,-5.813211E3,-2.0794626E3,1.8450647E3,3.9854062E2,-6.3328125E2,-2.5221345E3],"categories":[],"categories_nodes":[],"categories_segments":[],"categories_sizes":[],"default_left":[1,0,0,0,0,0,0,0,0,0,0,0,0,0,0,0,0,0,0,0,0,0,0,0,0,0,0,0,0,0,0,0,0,0,0],"id":20,"left_children":[1,3,5,-1,-1,7,9,11,13,15,-1,17,19,21,23,-1,-1,-1,-1,25,27,-1,29,31,33,-1,-1,-1,-1,-1,-1,-1,-1,-1,-1],"loss_changes":[7.151608E10,6.821847E8,2.8911151E10,0E0,0E0,1.8035745E10,9.688019E9,1.1768263E10,4.295384E9,2.0975227E9,0E0,4.180224E7,4.326281E9,3.3576049E9,2.329988E9,0E0,0E0,0E0,0E0,1.4599987E8,4.967035E9,0E0,3.1907123E8,5.06032E7,2.488832E7,0E0,0E0,0E0,0E0,0E0,0E0,0E0,0E0,0E0,0E0],"parents":[2147483647,0,0,1,1,2,2,5,5,6,6,7,7,8,8,9,9,11,11,12,12,13,13,14,14,19,19,20,20,22,22,23,23,24,24],"right_children":[2,4,6,-1,-1,8,10,12,14,16,-1,18,20,22,24,-1,-1,-1,-1,26,28,-1,30,32,34,-1,-1,-1,-1,-1,-1,-1,-1,-1,-1],"split_conditions":[9.308958E-3,1.0382816E-3,8.4305055E-2,-9.013356E3,-4.741747E3,-1.12716764E-1,6.7404425E-1,-2.6976743E-1,5.9972107E-2,7.6294276E-3,1.1059249E4,1.4492754E-2,3.2520324E-3,-1.0178117E-1,3.5051852E-2,4.012336E3,-5.9723126E2,-2.9170042E3,-7.448875E2,-1.6831683E-1,2.353352E-1,-1.2164375E2,4.6412203E-2,5.929691E-3,3.968254E-3,6.8881406E3,2.615475E3,4.046824E3,-1.8546251E2,-5.813211E3,-2.0794626E3,1.8450647E3,3.9854062E2,-6.3328125E2,-2.5221345E3],"split_indices":[1,2,6,0,0,3,7,3,4,0,0,0,0,3,1,0,0,0,0,3,7,0,1,0,0,0,0,0,0,0,0,0,0,0,0],"split_type":[0,0,0,0,0,0,0,0,0,0,0,0,0,0,0,0,0,0,0,0,0,0,0,0,0,0,0,0,0,0,0,0,0,0,0],"sum_hessian":[4.7E1,1E1,3.7E1,4E0,6E0,3E1,7E0,1.8E1,1.2E1,4E0,3E0,3E0,1.5E1,7E0,5E0,3E0,1E0,2E0,1E0,5E0,1E1,2E0,5E0,3E0,2E0,3E0,2E0,5E0,5E0,3E0,2E0,2E0,1E0,1E0,1E0],"tree_param":{"num_deleted":"0","num_feature":"10","num_nodes":"35","size_leaf_vector":"1"}},{"base_weights":[-9.548275E1,-6.528056E4,1.8776395E4,-4.220378E3,-8.453194E4,5.393602E3,6.8287664E4,-9.285481E3,-2.562022E3,5.1386344E4,-5.427554E3,2.7421824E4,1.0229805E4,7.234371E3,2.2821736E3,3.612449E4,-1.4624493E4,3.7114126E3,-5.673688E2,-3.3084377E1,4.532103E3,-2.2809663E3,-2.9208629E4,-2.395725E3,6.6176434E2,-4.5890615E3,7.287E2],"categories":[],"categories_nodes":[],"categories_segments":[],"categories_sizes":[],"default_left":[1,0,0,0,0,0,0,0,0,0,0,0,0,0,0,0,0,0,0,0,0,0,0,0,0,0,0],"id":21,"left_children":[1,3,5,-1,7,9,11,-1,-1,13,15,17,-1,-1,-1,19,21,-1,-1,-1,-1,23,25,-1,-1,-1,-1],"loss_changes":[6.027364E10,1.3192888E9,2.4810447E10,0E0,7.261798E7,1.5707435E10,8.3137085E9,0E0,0E0,1.9408251E9,1.0464244E10,1.8144323E9,0E0,0E0,0E0,1.6913096E9,3.8938086E9,0E0,0E0,0E0,0E0,2.6660948E9,6.4225987E9,0E0,0E0,0E0,0E0],"parents":[2147483647,0,0,1,1,2,2,4,4,5,5,6,6,9,9,10,10,11,11,15,15,16,16,21,21,22,22],"right_children":[2,4,6,-1,8,10,12,-1,-1,14,16,18,-1,-1,-1,20,22,-1,-1,-1,-1,24,26,-1,-1,-1,-1],"split_conditions":[9.308958E-3,1.1402508E-2,8.4305055E-2,-4.220378E3,4.255319E-2,1.9723866E-3,6.7404425E-1,-9.285481E3,-2.562022E3,-1.6831683E-1,2.8572498E-2,7.6294276E-3,1.0229805E4,7.234371E3,2.2821736E3,2.4013774E-2,-1.1035156E-1,3.7114126E3,-5.673688E2,-3.3084377E1,4.532103E3,-2.6976743E-1,2.372797E-2,-2.395725E3,6.6176434E2,-4.5890615E3,7.287E2],"split_indices":[1,0,6,0,0,0,7,0,0,3,6,0,0,0,0,1,3,0,0,0,0,3,2,0,0,0,0],"split_type":[0,0,0,0,0,0,0,0,0,0,0,0,0,0,0,0,0,0,0,0,0,0,0,0,0,0,0],"sum_hessian":[4.7E1,1E1,3.7E1,6E0,4E0,3E1,7E0,3E0,1E0,5E0,2.5E1,4E0,3E0,2E0,3E0,4E0,2.1E1,3E0,1E0,1E0,3E0,1.2E1,9E0,3E0,9E0,6E0,3E0],"tree_param":{"num_deleted":"0","num_feature":"10","num_nodes":"27","size_leaf_vector":"1"}},{"base_weights":[3.338379E1,-6.021322E4,1.7472312E4,-3.8586316E3,-7.844824E3,7.025988E3,7.201504E4,2.3183754E4,-1.9615479E4,1.8584188E3,7.8984375E4,5.9882273E4,1.102632E4,-3.4081258E4,-2.3474866E3,1.9357001E3,8.905197E3,2.4851335E3,7.495246E3,-5.458206E3,3.0253688E4,7.88575E2,-4.239005E4,-1.1231081E4,1.3241E4,2.8159375E3,-1.2322313E3,3.6255232E3,-5.8785626E2,-1.6348938E3,-5.1323374E3,-1.3449167E2,-1.7373553E3,1.6439719E3,3.4217813E2],"categories":[],"categories_nodes":[],"categories_segments":[],"categories_sizes":[],"default_left":[1,0,0,0,0,0,0,0,0,0,0,0,0,0,0,0,0,0,0,0,0,0,0,0,0,0,0,0,0,0,0,0,0,0,0],"id":22,"left_children":[1,3,5,-1,-1,7,9,11,13,-1,15,17,19,21,23,-1,-1,-1,-1,25,27,-1,29,31,33,-1,-1,-1,-1,-1,-1,-1,-1,-1,-1],"loss_changes":[5.14826E10,1.3110108E9,2.1145324E10,0E0,0E0,1.4660156E10,7.6640256E8,8.709075E9,3.1673298E9,0E0,1.2777431E9,7.769477E8,5.5533496E9,2.775144E9,1.1180833E9,0E0,0E0,0E0,0E0,2.654535E9,1.9479224E9,0E0,5.567191E8,2.8026138E8,3.797363E7,0E0,0E0,0E0,0E0,0E0,0E0,0E0,0E0,0E0,0E0],"parents":[2147483647,0,0,1,1,2,2,5,5,6,6,7,7,8,8,10,10,11,11,12,12,13,13,14,14,19,19,20,20,22,22,23,23,24,24],"right_children":[2,4,6,-1,-1,8,10,12,14,-1,16,18,20,22,24,-1,-1,-1,-1,26,28,-1,30,32,34,-1,-1,-1,-1,-1,-1,-1,-1,-1,-1],"split_conditions":[9.308958E-3,1.1402508E-2,1.5056648E0,-3.8586316E3,-7.844824E3,-1.12716764E-1,-3.8182557E-2,3.5273368E-3,9.031582E-3,1.8584188E3,4.103427E-2,1.6116035E-3,-4.3570444E-2,1.5564202E-3,6.638116E-2,1.9357001E3,8.905197E3,2.4851335E3,7.495246E3,2.8572498E-2,1.2352611E-2,7.88575E2,-4.840271E-3,2.7066939E-2,5.929691E-3,2.8159375E3,-1.2322313E3,3.6255232E3,-5.8785626E2,-1.6348938E3,-5.1323374E3,-1.3449167E2,-1.7373553E3,1.6439719E3,3.4217813E2],"split_indices":[1,0,7,0,0,3,2,0,2,0,6,0,8,0,4,0,0,0,0,6,0,0,4,1,0,0,0,0,0,0,0,0,0,0,0],"split_type":[0,0,0,0,0,0,0,0,0,0,0,0,0,0,0,0,0,0,0,0,0,0,0,0,0,0,0,0,0,0,0,0,0,0,0],"sum_hessian":[4.7E1,1E1,3.7E1,6E0,4E0,3.2E1,5E0,2E1,1.2E1,1E0,4E0,4E0,1.6E1,6E0,6E0,1E0,3E0,2E0,2E0,9E0,7E0,1E0,5E0,4E0,2E0,1E0,8E0,6E0,1E0,2E0,3E0,2E0,2E0,1E0,1E0],"tree_param":{"num_deleted":"0","num_feature":"10","num_nodes":"35","size_leaf_vector":"1"}},{"base_weights":[2.3282454E2,-5.525585E4,1.6289209E4,-7.283915E3,-3.480266E3,6.493371E3,6.7451445E4,4.8781062E4,-4.7105996E3,3.1896516E3,9.237421E3,6.555911E3,1.980775E3,3.1425338E4,-1.236143E4,-2.4706251E1,3.9405203E3,-2.6950178E3,-2.4658262E4,-1.902745E3,5.7407E2,-3.9042246E3,6.6782733E2],"categories":[],"categories_nodes":[],"categories_segments":[],"categories_sizes":[],"default_left":[1,0,0,0,0,0,0,0,0,0,0,0,0,0,0,0,0,0,0,0,0,0,0],"id":23,"left_children":[1,3,5,-1,-1,7,9,11,13,-1,-1,-1,-1,15,17,-1,-1,19,21,-1,-1,-1,-1],"loss_changes":[4.3665555E10,1.4209843E9,1.8606737E10,0E0,0E0,1.586486E10,2.370347E9,2.1042309E9,7.85315E9,0E0,0E0,0E0,0E0,1.2734428E9,2.667469E9,0E0,0E0,2.0380919E9,4.768177E9,0E0,0E0,0E0,0E0],"parents":[2147483647,0,0,1,1,2,2,5,5,6,6,7,7,8,8,13,13,14,14,17,17,18,18],"right_children":[2,4,6,-1,-1,8,10,12,14,-1,-1,-1,-1,16,18,-1,-1,20,22,-1,-1,-1,-1],"split_conditions":[9.308958E-3,1.0382816E-3,8.722579E-2,-7.283915E3,-3.480266E3,2.8288544E-3,-1.4834437E-1,-1.5705521E-1,2.8572498E-2,3.1896516E3,9.237421E3,6.555911E3,1.980775E3,2.4013774E-2,-1.1035156E-1,-2.4706251E1,3.9405203E3,-2.684172E-1,2.372797E-2,-1.902745E3,5.7407E2,-3.9042246E3,6.6782733E2],"split_indices":[1,2,6,0,0,0,3,3,6,0,0,0,0,1,3,0,0,3,2,0,0,0,0],"split_type":[0,0,0,0,0,0,0,0,0,0,0,0,0,0,0,0,0,0,0,0,0,0,0],"sum_hessian":[4.7E1,1E1,3.7E1,4E0,6E0,3.2E1,5E0,6E0,2.6E1,3E0,2E0,3E0,3E0,4E0,2.2E1,1E0,3E0,1.3E1,9E0,4E0,9E0,6E0,3E0],"tree_param":{"num_deleted":"0","num_feature":"10","num_nodes":"23","size_leaf_vector":"1"}},{"base_weights":[4.08514E2,-5.0708824E4,1.5194888E4,-3.5960605E4,-7.8050547E3,6.0827065E3,6.2779406E4,-3.9582761E3,-1.5522036E3,-2.9651469E4,1.5121837E4,1.7367938E3,6.838811E4,-1.2734281E4,-4.796296E3,4.5248176E4,6.218206E3,1.7398782E3,7.678575E3,-5.0395832E1,-2.1173406E3,5.824947E3,1.2830396E3,2.4713848E4,-2.2622754E3,-1.9228438E2,1.84725E2,-5.48E1,3.4928188E3,-5.703536E2,2.4678313E3],"categories":[],"categories_nodes":[],"categories_segments":[],"categories_sizes":[],"default_left":[1,0,0,0,0,0,0,0,0,0,0,0,0,0,0,0,0,0,0,0,0,0,0,0,0,0,0,0,0,0,0],"id":24,"left_children":[1,3,5,7,-1,9,11,-1,-1,13,15,-1,17,19,-1,21,23,-1,-1,25,-1,-1,-1,27,29,-1,-1,-1,-1,-1,-1],"loss_changes":[3.7050835E10,1.6289157E9,1.6094886E10,5.1879936E7,0E0,1.1107577E10,3.4043494E8,0E0,0E0,1.5576786E9,6.9609503E9,0E0,8.049705E8,5.3413747E8,0E0,1.7814753E9,3.5066527E9,0E0,0E0,1.4211702E7,0E0,0E0,0E0,1.8253724E9,1.6241068E9,0E0,0E0,0E0,0E0,0E0,0E0],"parents":[2147483647,0,0,1,1,2,2,3,3,5,5,6,6,9,9,10,10,12,12,13,13,15,15,16,16,19,19,23,23,24,24],"right_children":[2,4,6,8,-1,10,12,-1,-1,14,16,-1,18,20,-1,22,24,-1,-1,26,-1,-1,-1,28,30,-1,-1,-1,-1,-1,-1],"split_conditions":[9.308958E-3,1E-5,1.5056648E0,5.8888885E1,-7.8050547E3,4.4441366E-1,-3.8182557E-2,-3.9582761E3,-1.5522036E3,4.3540508E-1,3.5273368E-3,1.7367938E3,4.103427E-2,3.9344262E-3,-4.796296E3,5.495156E1,2.0024125E-1,1.7398782E3,7.678575E3,3.292181E-3,-2.1173406E3,5.824947E3,1.2830396E3,2.4013774E-2,8.722579E-2,-1.9228438E2,1.84725E2,-5.48E1,3.4928188E3,-5.703536E2,2.4678313E3],"split_indices":[1,3,7,5,0,9,2,0,0,9,0,0,6,0,0,5,7,0,0,0,0,0,0,1,6,0,0,0,0,0,0],"split_type":[0,0,0,0,0,0,0,0,0,0,0,0,0,0,0,0,0,0,0,0,0,0,0,0,0,0,0,0,0,0,0],"sum_hessian":[4.7E1,1E1,3.7E1,8E0,2E0,3.2E1,5E0,6E0,2E0,6E0,2.6E1,1E0,4E0,4E0,2E0,5E0,2.1E1,1E0,3E0,2E0,2E0,3E0,2E0,6E0,1.5E1,1E0,1E0,2E0,4E0,1.4E1,1E0],"tree_param":{"num_deleted":"0","num_feature":"10","num_nodes":"31","size_leaf_vector":"1"}},{"base_weights":[4.3770654E2,-4.684844E4,1.4114284E4,-3.2976816E4,-7.2847183E3,5.6050576E3,5.8562645E4,-3.6189949E3,-1.448723E3,4.1481332E4,-3.9037927E3,2.6557908E3,8.171475E3,5.534664E3,1.7245687E3,2.7793887E4,-1.0624862E4,-2.073125E1,3.4846016E3,-2.4530803E3,-2.1002871E4,-1.6739563E3,4.9354688E2,-3.3778496E3,6.6051874E2],"categories":[],"categories_nodes":[],"categories_segments":[],"categories_sizes":[],"default_left":[1,0,0,0,0,0,0,0,0,0,0,0,0,0,0,0,0,0,0,0,0,0,0,0,0],"id":25,"left_children":[1,3,5,7,-1,9,11,-1,-1,13,15,-1,-1,-1,-1,17,19,-1,-1,21,23,-1,-1,-1,-1],"loss_changes":[3.1703441E10,1.5648215E9,1.4044158E10,1.0394624E7,0E0,1.1419624E10,2.2756905E9,0E0,0E0,1.3977518E9,6.0474486E9,0E0,0E0,0E0,0E0,9.945646E8,1.8990359E9,0E0,0E0,1.5604068E9,3.7502152E9,0E0,0E0,0E0,0E0],"parents":[2147483647,0,0,1,1,2,2,3,3,5,5,6,6,9,9,10,10,15,15,16,16,19,19,20,20],"right_children":[2,4,6,8,-1,10,12,-1,-1,14,16,-1,-1,-1,-1,18,20,-1,-1,22,24,-1,-1,-1,-1],"split_conditions":[9.308958E-3,1E-5,8.722579E-2,5.8888885E1,-7.2847183E3,2.8288544E-3,-1.4834437E-1,-3.6189949E3,-1.448723E3,-1.5705521E-1,2.8572498E-2,2.6557908E3,8.171475E3,5.534664E3,1.7245687E3,2.4013774E-2,-1.1035156E-1,-2.073125E1,3.4846016E3,-2.684172E-1,2.372797E-2,-1.6739563E3,4.9354688E2,-3.3778496E3,6.6051874E2],"split_indices":[1,3,6,5,0,0,3,0,0,3,6,0,0,0,0,1,3,0,0,3,2,0,0,0,0],"split_type":[0,0,0,0,0,0,0,0,0,0,0,0,0,0,0,0,0,0,0,0,0,0,0,0,0],"sum_hessian":[4.7E1,1E1,3.7E1,8E0,2E0,3.2E1,5E0,6E0,2E0,6E0,2.6E1,3E0,2E0,3E0,3E0,4E0,2.2E1,1E0,3E0,1.3E1,9E0,4E0,9E0,6E0,3E0],"tree_param":{"num_deleted":"0","num_feature":"10","num_nodes":"25","size_leaf_vector":"1"}},{"base_weights":[5.0435092E2,-4.3286547E4,1.3167391E4,-3.0242212E3,-6.79907E3,5.2016924E3,5.4784168E4,-2.6129299E4,1.3131887E4,1.5666562E3,5.9474375E4,-1.1072894E4,-4.2513545E3,3.8606168E4,5.5874517E3,1.625275E3,6.6216597E3,-3.7691666E2,-1.8077906E3,1.5729891E3,5.6239146E3,2.5707262E4,-3.117986E2,-2.0734688E2,1.5080937E2,-1.969375E1,3.2232546E3,-4.5895587E2,2.2606853E3],"categories":[],"categories_nodes":[],"categories_segments":[],"categories_sizes":[],"default_left":[1,0,0,0,0,0,0,0,0,0,0,0,0,0,0,0,0,0,0,0,0,0,0,0,0,0,0,0,0],"id":26,"left_children":[1,3,5,-1,-1,7,9,11,13,-1,15,17,-1,19,21,-1,-1,23,-1,-1,-1,25,27,-1,-1,-1,-1,-1,-1],"loss_changes":[2.7187212E10,1.488552E9,1.2312283E10,0E0,0E0,8.5423345E9,1.690624E8,1.2560666E9,4.9733944E9,0E0,3.8084608E8,3.6781338E8,0E0,1.5356252E9,2.619235E9,0E0,0E0,1.272104E7,0E0,0E0,0E0,8.5150925E8,1.8684845E9,0E0,0E0,0E0,0E0,0E0,0E0],"parents":[2147483647,0,0,1,1,2,2,5,5,6,6,7,7,8,8,10,10,11,11,13,13,14,14,17,17,21,21,22,22],"right_children":[2,4,6,-1,-1,8,10,12,14,-1,16,18,-1,20,22,-1,-1,24,-1,-1,-1,26,28,-1,-1,-1,-1,-1,-1],"split_conditions":[9.308958E-3,1E-5,1.5056648E0,-3.0242212E3,-6.79907E3,4.4441366E-1,4.103427E-2,4.3540508E-1,3.5273368E-3,1.5666562E3,-3.8182557E-2,3.9344262E-3,-4.2513545E3,1.6116035E-3,2.8572498E-2,1.625275E3,6.6216597E3,3.292181E-3,-1.8077906E3,1.5729891E3,5.6239146E3,2.4013774E-2,8.722579E-2,-2.0734688E2,1.5080937E2,-1.969375E1,3.2232546E3,-4.5895587E2,2.2606853E3],"split_indices":[1,3,7,0,0,9,6,9,0,0,2,0,0,0,6,0,0,0,0,0,0,1,6,0,0,0,0,0,0],"split_type":[0,0,0,0,0,0,0,0,0,0,0,0,0,0,0,0,0,0,0,0,0,0,0,0,0,0,0,0,0],"sum_hessian":[4.7E1,1E1,3.7E1,8E0,2E0,3.2E1,5E0,6E0,2.6E1,1E0,4E0,4E0,2E0,5E0,2.1E1,1E0,3E0,2E0,2E0,3E0,2E0,4E0,1.7E1,1E0,1E0,1E0,3E0,1.5E1,2E0],"tree_param":{"num_deleted":"0","num_feature":"10","num_nodes":"29","size_leaf_vector":"1"}},{"base_weights":[5.8051465E2,-3.9850918E4,1.2269074E4,-2.7554018E4,-6.3457983E3,4.7727065E3,5.145425E4,-3.0495764E4,-1.1505271E3,3.5001688E4,-3.2412036E3,2.3042454E3,7.218523E3,-7.8691254E2,-3.295535E3,4.6478843E3,1.4774109E4,2.377725E4,-8.973858E3,4.2107812E2,1.6891625E3,-1.8709375E1,2.981511E3,-1.3708112E4,3.8055938E3,-4.821146E2,-2.919736E3,-1.114329E3,1.7803079E3],"categories":[],"categories_nodes":[],"categories_segments":[],"categories_sizes":[],"default_left":[1,0,0,0,0,0,0,0,0,0,0,0,0,0,0,0,0,0,0,0,0,0,0,0,0,0,0,0,0],"id":27,"left_children":[1,3,5,7,-1,9,11,13,-1,15,17,-1,-1,-1,-1,-1,19,21,23,-1,-1,-1,-1,25,27,-1,-1,-1,-1],"loss_changes":[2.3173026E10,1.4447104E9,1.091679E10,7.404032E7,0E0,8.107775E9,1.8707016E9,1.3023488E8,0E0,9.384018E8,4.395335E9,0E0,0E0,0E0,0E0,0E0,1.8345152E7,7.2904474E8,1.4436942E9,0E0,0E0,0E0,0E0,2.1993265E9,1.6631122E9,0E0,0E0,0E0,0E0],"parents":[2147483647,0,0,1,1,2,2,3,3,5,5,6,6,7,7,9,9,10,10,16,16,17,17,18,18,23,23,24,24],"right_children":[2,4,6,8,-1,10,12,14,-1,16,18,-1,-1,-1,-1,-1,20,22,24,-1,-1,-1,-1,26,28,-1,-1,-1,-1],"split_conditions":[9.308958E-3,1E-5,8.722579E-2,5.8888885E1,-6.3457983E3,2.8288544E-3,-1.4834437E-1,6.978367E-3,-1.1505271E3,-1.5705521E-1,2.8572498E-2,2.3042454E3,7.218523E3,-7.8691254E2,-3.295535E3,4.6478843E3,1.2115544E-2,2.4013774E-2,9.031582E-3,4.2107812E2,1.6891625E3,-1.8709375E1,2.981511E3,-1.12716764E-1,3.968254E-3,-4.821146E2,-2.919736E3,-1.114329E3,1.7803079E3],"split_indices":[1,3,6,5,0,0,3,0,0,3,6,0,0,0,0,0,1,1,2,0,0,0,0,3,0,0,0,0,0],"split_type":[0,0,0,0,0,0,0,0,0,0,0,0,0,0,0,0,0,0,0,0,0,0,0,0,0,0,0,0,0],"sum_hessian":[4.7E1,1E1,3.7E1,8E0,2E0,3.2E1,5E0,6E0,2E0,6E0,2.6E1,3E0,2E0,1E0,5E0,3E0,3E0,4E0,2.2E1,1E0,2E0,1E0,3E0,1.6E1,6E0,1.1E1,5E0,3E0,3E0],"tree_param":{"num_deleted":"0","num_feature":"10","num_nodes":"29","size_leaf_vector":"1"}},{"base_weights":[6.2515594E2,-3.6918445E4,1.1476589E4,-2.5380059E4,-5.9227456E3,4.490407E3,4.7987824E4,-2.8029396E4,-1.0738251E3,-2.2841781E4,1.1410219E4,2.9758413E3,6.9567437E3,-7.475672E2,-3.0209072E3,-9.338807E3,-3.7732812E3,3.3231543E4,4.9403027E3,1.7408333E2,-1.5738761E3,1.3446516E4,4.8534395E3,1.8746785E4,-1.4088027E3,-1.412625E2,1.67375E2,4.00025E2,1.5261854E3,-3.4258335E1,2.6451052E3,2.3045781E2,-1.8268313E3],"categories":[],"categories_nodes":[],"categories_segments":[],"categories_sizes":[],"default_left":[1,0,0,0,0,0,0,0,0,0,0,0,0,0,0,0,0,0,0,0,0,0,0,0,0,0,0,0,0,0,0,0,0],"id":28,"left_children":[1,3,5,7,-1,9,11,13,-1,15,17,-1,-1,-1,-1,19,-1,21,23,25,-1,27,-1,29,31,-1,-1,-1,-1,-1,-1,-1,-1],"loss_changes":[1.9978988E10,1.3283123E9,9.477331E9,4.813363E7,0E0,6.5020385E9,2.900859E8,8.77696E7,0E0,1.0551329E9,3.6477443E9,0E0,0E0,0E0,0E0,3.071502E8,0E0,1.1639854E9,1.9549046E9,9.502982E6,0E0,7.54144E6,0E0,1.0385485E9,1.0437932E9,0E0,0E0,0E0,0E0,0E0,0E0,0E0,0E0],"parents":[2147483647,0,0,1,1,2,2,3,3,5,5,6,6,7,7,9,9,10,10,15,15,17,17,18,18,19,19,21,21,23,23,24,24],"right_children":[2,4,6,8,-1,10,12,14,-1,16,18,-1,-1,-1,-1,20,-1,22,24,26,-1,28,-1,30,32,-1,-1,-1,-1,-1,-1,-1,-1],"split_conditions":[9.308958E-3,1E-5,1.5056648E0,5.8888885E1,-5.9227456E3,4.4441366E-1,3.2520324E-3,6.978367E-3,-1.0738251E3,4.3540508E-1,3.5273368E-3,2.9758413E3,6.9567437E3,-7.475672E2,-3.0209072E3,3.9344262E-3,-3.7732812E3,1.6116035E-3,2.0024125E-1,3.292181E-3,-1.5738761E3,1.2115544E-2,4.8534395E3,2.4013774E-2,1.1192883E0,-1.412625E2,1.67375E2,4.00025E2,1.5261854E3,-3.4258335E1,2.6451052E3,2.3045781E2,-1.8268313E3],"split_indices":[1,3,7,5,0,9,0,0,0,9,0,0,0,0,0,0,0,0,7,0,0,1,0,1,7,0,0,0,0,0,0,0,0],"split_type":[0,0,0,0,0,0,0,0,0,0,0,0,0,0,0,0,0,0,0,0,0,0,0,0,0,0,0,0,0,0,0,0,0],"sum_hessian":[4.7E1,1E1,3.7E1,8E0,2E0,3.2E1,5E0,6E0,2E0,6E0,2.6E1,4E0,1E0,1E0,5E0,4E0,2E0,5E0,2.1E1,2E0,2E0,3E0,2E0,6E0,1.5E1,1E0,1E0,1E0,2E0,2E0,4E0,1.3E1,2E0],"tree_param":{"num_deleted":"0","num_feature":"10","num_nodes":"33","size_leaf_vector":"1"}},{"base_weights":[5.968213E2,-3.4205242E4,1.0655397E4,-2.3380088E4,-5.527896E3,4.052766E3,4.519397E4,-2.5764812E4,-1.002237E3,3.022308E4,-2.8822327E3,5.7436533E3,1.3805896E3,-7.101891E2,-2.769165E3,4.029164E3,1.259875E4,2.08948E4,-7.9258384E3,3.80025E2,1.4264833E3,-1.60625E1,2.6198813E3,-2.16893E4,-3.8867253E3,-2.3450313E2,-2.593911E3,1.9344875E3,-7.757789E2],"categories":[],"categories_nodes":[],"categories_segments":[],"categories_sizes":[],"default_left":[1,0,0,0,0,0,0,0,0,0,0,0,0,0,0,0,0,0,0,0,0,0,0,0,0,0,0,0,0],"id":29,"left_children":[1,3,5,7,-1,9,11,13,-1,15,17,-1,-1,-1,-1,-1,19,21,23,-1,-1,-1,-1,25,27,-1,-1,-1,-1],"loss_changes":[1.7167312E10,1.2169615E9,8.4825667E9,2.8465664E7,0E0,6.0763156E9,1.51266E9,5.505997E7,0E0,7.345372E8,3.4035023E9,0E0,0E0,0E0,0E0,0E0,4.426176E6,5.625994E8,1.1943197E9,0E0,0E0,0E0,0E0,3.5021926E8,1.8587624E9,0E0,0E0,0E0,0E0],"parents":[2147483647,0,0,1,1,2,2,3,3,5,5,6,6,7,7,9,9,10,10,16,16,17,17,18,18,23,23,24,24],"right_children":[2,4,6,8,-1,10,12,14,-1,16,18,-1,-1,-1,-1,-1,20,22,24,-1,-1,-1,-1,26,28,-1,-1,-1,-1],"split_conditions":[9.308958E-3,1E-5,8.722579E-2,5.8888885E1,-5.527896E3,2.8288544E-3,1.3144809E-1,6.978367E-3,-1.002237E3,-1.5705521E-1,2.8572498E-2,5.7436533E3,1.3805896E3,-7.101891E2,-2.769165E3,4.029164E3,1.2115544E-2,2.4013774E-2,1.624944E-2,3.80025E2,1.4264833E3,-1.60625E1,2.6198813E3,1.0489849E-2,2.7350426E1,-2.3450313E2,-2.593911E3,1.9344875E3,-7.757789E2],"split_indices":[1,3,6,5,0,0,6,0,0,3,6,0,0,0,0,0,1,1,1,0,0,0,0,1,5,0,0,0,0],"split_type":[0,0,0,0,0,0,0,0,0,0,0,0,0,0,0,0,0,0,0,0,0,0,0,0,0,0,0,0,0],"sum_hessian":[4.7E1,1E1,3.7E1,8E0,2E0,3.2E1,5E0,6E0,2E0,6E0,2.6E1,3E0,2E0,1E0,5E0,3E0,3E0,4E0,2.2E1,1E0,2E0,1E0,3E0,4E0,1.8E1,1E0,3E0,2E0,1.6E1],"tree_param":{"num_deleted":"0","num_feature":"10","num_nodes":"29","size_leaf_vector":"1"}},{"base_weights":[6.180666E2,-3.169467E4,9.955488E3,-2.1540031E4,-5.159369E3,3.830443E3,4.198399E4,-2.368538E4,-9.3542084E2,-2.0393076E4,9.968746E3,2.5093887E3,6.321725E3,-6.746797E2,-2.5384011E3,-8.0938687E3,-3.4094062E3,2.8878354E4,4.358456E3,6.825417E2,-1.4172323E3,1.1786656E4,4.2041167E3,1.9326088E4,-4.1355904E1,-9.54125E1,1.9779375E2,3.61025E2,1.3308708E3,-1.5259376E1,2.4233906E3,-3.0897092E2,1.6230312E3],"categories":[],"categories_nodes":[],"categories_segments":[],"categories_sizes":[],"default_left":[1,0,0,0,0,0,0,0,0,0,0,0,0,0,0,0,0,0,0,0,0,0,0,0,0,0,0,0,0,0,0,0,0],"id":30,"left_children":[1,3,5,7,-1,9,11,13,-1,15,17,-1,-1,-1,-1,19,-1,21,23,25,-1,27,-1,29,31,-1,-1,-1,-1,-1,-1,-1,-1],"loss_changes":[1.4797983E10,1.1114117E9,7.293872E9,1.3727744E7,0E0,5.1101066E9,5.6542515E8,3.0146048E7,0E0,9.0362624E8,2.7385216E9,0E0,0E0,0E0,0E0,2.7640822E8,0E0,8.543242E8,1.4496041E9,8.2475925E6,0E0,1.731904E6,0E0,4.816873E8,9.4297914E8,0E0,0E0,0E0,0E0,0E0,0E0,0E0,0E0],"parents":[2147483647,0,0,1,1,2,2,3,3,5,5,6,6,7,7,9,9,10,10,15,15,17,17,18,18,19,19,21,21,23,23,24,24],"right_children":[2,4,6,8,-1,10,12,14,-1,16,18,-1,-1,-1,-1,20,-1,22,24,26,-1,28,-1,30,32,-1,-1,-1,-1,-1,-1,-1,-1],"split_conditions":[9.308958E-3,1E-5,1.5056648E0,5.8888885E1,-5.159369E3,4.4441366E-1,3.2520324E-3,6.978367E-3,-9.3542084E2,4.3540508E-1,3.5273368E-3,2.5093887E3,6.321725E3,-6.746797E2,-2.5384011E3,3.9344262E-3,-3.4094062E3,1.6116035E-3,2.8572498E-2,3.292181E-3,-1.4172323E3,1.2115544E-2,4.2041167E3,2.4013774E-2,8.722579E-2,-9.54125E1,1.9779375E2,3.61025E2,1.3308708E3,-1.5259376E1,2.4233906E3,-3.0897092E2,1.6230312E3],"split_indices":[1,3,7,5,0,9,0,0,0,9,0,0,0,0,0,0,0,0,6,0,0,1,0,1,6,0,0,0,0,0,0,0,0],"split_type":[0,0,0,0,0,0,0,0,0,0,0,0,0,0,0,0,0,0,0,0,0,0,0,0,0,0,0,0,0,0,0,0,0],"sum_hessian":[4.7E1,1E1,3.7E1,8E0,2E0,3.2E1,5E0,6E0,2E0,6E0,2.6E1,4E0,1E0,1E0,5E0,4E0,2E0,5E0,2.1E1,2E0,2E0,3E0,2E0,4E0,1.7E1,1E0,1E0,1E0,2E0,1E0,3E0,1.5E1,2E0],"tree_param":{"num_deleted":"0","num_feature":"10","num_nodes":"33","size_leaf_vector":"1"}},{"base_weights":[6.482913E2,-2.9371373E4,9.321134E3,-1.9846975E4,-4.8154116E3,3.579821E3,3.9344832E4,-5.8828436E2,-2.0857135E4,2.6116715E4,-2.395663E3,1.6943407E3,5.6098457E3,-1.2452557E3,-2.6148574E3,3.4964062E3,1.0740188E3,1.7875113E4,-6.6981943E3,-1.4496875E1,2.2416375E3,1.789323E2,-1.3017138E4,-7.694313E2,9.3345624E2,-1.8390641E3,9.2335834E2],"categories":[],"categories_nodes":[],"categories_segments":[],"categories_sizes":[],"default_left":[1,0,0,0,0,0,0,0,0,0,0,0,0,0,0,0,0,0,0,0,0,0,0,0,0,0,0],"id":31,"left_children":[1,3,5,7,-1,9,11,-1,13,15,17,-1,-1,-1,-1,-1,-1,19,21,-1,-1,23,25,-1,-1,-1,-1],"loss_changes":[1.2770854E10,1.0121247E9,6.40942E9,4.25472E6,0E0,4.506639E9,1.301331E9,0E0,3.016192E7,5.7677005E8,2.4745533E9,0E0,0E0,0E0,0E0,0E0,0E0,4.124192E8,1.0018214E9,0E0,0E0,9.368373E8,1.6045834E9,0E0,0E0,0E0,0E0],"parents":[2147483647,0,0,1,1,2,2,3,3,5,5,6,6,8,8,9,9,10,10,17,17,18,18,21,21,22,22],"right_children":[2,4,6,8,-1,10,12,-1,14,16,18,-1,-1,-1,-1,-1,-1,20,22,-1,-1,24,26,-1,-1,-1,-1],"split_conditions":[9.308958E-3,1E-5,8.722579E-2,9.308958E-3,-4.8154116E3,2.8288544E-3,-1.4834437E-1,-5.8828436E2,-1.0197846E-3,-1.5705521E-1,2.8572498E-2,1.6943407E3,5.6098457E3,-1.2452557E3,-2.6148574E3,3.4964062E3,1.0740188E3,2.4013774E-2,2.8099173E-1,-1.4496875E1,2.2416375E3,5.3333333E-3,7.730887E-2,-7.694313E2,9.3345624E2,-1.8390641E3,9.2335834E2],"split_indices":[1,3,6,1,0,0,3,0,8,3,6,0,0,0,0,0,0,1,7,0,0,0,6,0,0,0,0],"split_type":[0,0,0,0,0,0,0,0,0,0,0,0,0,0,0,0,0,0,0,0,0,0,0,0,0,0,0],"sum_hessian":[4.7E1,1E1,3.7E1,8E0,2E0,3.2E1,5E0,1E0,7E0,6E0,2.6E1,3E0,2E0,4E0,3E0,3E0,3E0,4E0,2.2E1,1E0,3E0,1.1E1,1.1E1,6E0,5E0,9E0,2E0],"tree_param":{"num_deleted":"0","num_feature":"10","num_nodes":"27","size_leaf_vector":"1"}},{"base_weights":[6.6859894E2,-2.72764E4,8.740347E3,-1.8356543E3,-4.4943843E3,3.3693477E3,3.6824113E4,-1.8152566E4,8.8243125E3,2.1288364E3,5.725144E3,-7.056544E3,-3.0595085E3,2.4815094E4,4.0620852E3,5.971042E2,-1.2358011E3,1.0070391E4,3.6203E3,6.642569E3,-1.4495167E3,-5.216875E1,1.4173438E2,2.89275E2,1.1498688E3,-7.806288E2,1.0742676E3],"categories":[],"categories_nodes":[],"categories_segments":[],"categories_sizes":[],"default_left":[1,0,0,0,0,0,0,0,0,0,0,0,0,0,0,0,0,0,0,0,0,0,0,0,0,0,0],"id":32,"left_children":[1,3,5,-1,-1,7,9,11,13,-1,-1,15,-1,17,19,21,-1,23,-1,25,-1,-1,-1,-1,-1,-1,-1],"loss_changes":[1.1065524E10,9.084872E8,5.607766E9,0E0,0E0,4.0344266E9,6.85334E8,7.505416E8,1.955296E9,0E0,0E0,2.1025683E8,0E0,6.428892E8,1.149792E9,3.492442E6,0E0,7.744384E6,0E0,1.2686975E9,0E0,0E0,0E0,0E0,0E0,0E0,0E0],"parents":[2147483647,0,0,1,1,2,2,5,5,6,6,7,7,8,8,11,11,13,13,14,14,15,15,17,17,19,19],"right_children":[2,4,6,-1,-1,8,10,12,14,-1,-1,16,-1,18,20,22,-1,24,-1,26,-1,-1,-1,-1,-1,-1,-1],"split_conditions":[9.308958E-3,1E-5,1.5056648E0,-1.8356543E3,-4.4943843E3,4.4441366E-1,3.2520324E-3,4.3540508E-1,3.5273368E-3,2.1288364E3,5.725144E3,3.9344262E-3,-3.0595085E3,1.6116035E-3,1.1192883E0,3.292181E-3,-1.2358011E3,1.2115544E-2,3.6203E3,5.3333333E-3,-1.4495167E3,-5.216875E1,1.4173438E2,2.89275E2,1.1498688E3,-7.806288E2,1.0742676E3],"split_indices":[1,3,7,0,0,9,0,9,0,0,0,0,0,0,7,0,0,1,0,0,0,0,0,0,0,0,0],"split_type":[0,0,0,0,0,0,0,0,0,0,0,0,0,0,0,0,0,0,0,0,0,0,0,0,0,0,0],"sum_hessian":[4.7E1,1E1,3.7E1,8E0,2E0,3.2E1,5E0,6E0,2.6E1,4E0,1E0,4E0,2E0,5E0,2.1E1,2E0,2E0,3E0,2E0,1.9E1,2E0,1E0,1E0,1E0,2E0,4E0,1.5E1],"tree_param":{"num_deleted":"0","num_feature":"10","num_nodes":"27","size_leaf_vector":"1"}},{"base_weights":[6.2719824E2,-2.5124217E4,8.0650503E3,-1.672485E4,-4.1947583E3,3.0105881E3,3.4520418E4,-1.8548098E4,-6.895651E2,2.252284E4,-2.159647E3,1.4848079E3,4.9243394E3,-9.6484845E2,-2.2810688E3,3.0372266E3,9.042703E3,1.5673638E4,-5.9425503E3,2.748125E2,1.0224855E3,-6.7484375E1,1.9929469E3,-1.7829918E4,-2.5015295E3,-3.077125E2,-2.0748835E3,1.5635126E3,-5.554967E2],"categories":[],"categories_nodes":[],"categories_segments":[],"categories_sizes":[],"default_left":[1,0,0,0,0,0,0,0,0,0,0,0,0,0,0,0,0,0,0,0,0,0,0,0,0,0,0,0,0],"id":33,"left_children":[1,3,5,7,-1,9,11,13,-1,15,17,-1,-1,-1,-1,-1,19,21,23,-1,-1,-1,-1,25,27,-1,-1,-1,-1],"loss_changes":[9.396318E9,8.527949E8,4.9773435E9,3.3388544E7,0E0,3.3777777E9,1.0066427E9,4.54592E7,0E0,4.6603213E8,1.9146043E9,0E0,0E0,0E0,0E0,0E0,1.665376E6,3.613312E8,8.962056E8,0E0,0E0,0E0,0E0,1.514642E8,1.1390563E9,0E0,0E0,0E0,0E0],"parents":[2147483647,0,0,1,1,2,2,3,3,5,5,6,6,7,7,9,9,10,10,16,16,17,17,18,18,23,23,24,24],"right_children":[2,4,6,8,-1,10,12,14,-1,16,18,-1,-1,-1,-1,-1,20,22,24,-1,-1,-1,-1,26,28,-1,-1,-1,-1],"split_conditions":[9.308958E-3,1E-5,8.722579E-2,5.8888885E1,-4.1947583E3,2.8288544E-3,-1.4834437E-1,-2.4464235E-2,-6.895651E2,-1.5705521E-1,2.8572498E-2,1.4848079E3,4.9243394E3,-9.6484845E2,-2.2810688E3,3.0372266E3,1.2115544E-2,2.4013774E-2,1.624944E-2,2.748125E2,1.0224855E3,-6.7484375E1,1.9929469E3,1.0489849E-2,2.7350426E1,-3.077125E2,-2.0748835E3,1.5635126E3,-5.554967E2],"split_indices":[1,3,6,5,0,0,3,8,0,3,6,0,0,0,0,0,1,1,1,0,0,0,0,1,5,0,0,0,0],"split_type":[0,0,0,0,0,0,0,0,0,0,0,0,0,0,0,0,0,0,0,0,0,0,0,0,0,0,0,0,0],"sum_hessian":[4.7E1,1E1,3.7E1,8E0,2E0,3.2E1,5E0,6E0,2E0,6E0,2.6E1,3E0,2E0,3E0,3E0,3E0,3E0,4E0,2.2E1,1E0,2E0,1E0,3E0,4E0,1.8E1,1E0,3E0,2E0,1.6E1],"tree_param":{"num_deleted":"0","num_feature":"10","num_nodes":"29","size_leaf_vector":"1"}},{"base_weights":[6.304002E2,-2.335091E4,7.555769E3,-1.5489642E4,-3.915108E3,2.848482E3,3.2186553E4,-1.7156992E4,-6.435943E2,-1.6244933E4,7.6931274E3,1.7853187E3,5.192669E3,-4.386578E2,-1.8554299E4,-6.1357314E3,-2.7678625E3,2.1386209E4,3.6089631E3,-2.0048746E3,-5.5410315E2,9.375833E2,-1.1163802E3,8.727609E3,3.1135603E3,5.8676626E3,-1.265202E3,-2.1784376E1,1.6242188E2,2.6107187E2,9.896333E2,-6.737388E2,9.4400116E2],"categories":[],"categories_nodes":[],"categories_segments":[],"categories_sizes":[],"default_left":[1,0,0,0,0,0,0,0,0,0,0,0,0,0,0,0,0,0,0,0,0,0,0,0,0,0,0,0,0,0,0,0,0],"id":34,"left_children":[1,3,5,7,-1,9,11,13,-1,15,17,-1,-1,-1,19,21,-1,23,25,-1,-1,27,-1,29,-1,31,-1,-1,-1,-1,-1,-1,-1],"loss_changes":[8.148246E9,7.598669E8,4.314195E9,2.5439744E7,0E0,3.1775012E9,7.705989E8,4.351923E7,0E0,6.3927E8,1.4327875E9,0E0,0E0,0E0,5.595264E6,1.882926E8,0E0,4.687429E8,8.8226854E8,0E0,0E0,2.7338975E6,0E0,2.759296E6,0E0,9.6419386E8,0E0,0E0,0E0,0E0,0E0,0E0,0E0],"parents":[2147483647,0,0,1,1,2,2,3,3,5,5,6,6,7,7,9,9,10,10,14,14,15,15,17,17,18,18,21,21,23,23,25,25],"right_children":[2,4,6,8,-1,10,12,14,-1,16,18,-1,-1,-1,20,22,-1,24,26,-1,-1,28,-1,30,-1,32,-1,-1,-1,-1,-1,-1,-1],"split_conditions":[9.308958E-3,1E-5,1.5056648E0,5.8888885E1,-3.915108E3,4.4441366E-1,3.2520324E-3,6.978367E-3,-6.435943E2,4.3540508E-1,3.5273368E-3,1.7853187E3,5.192669E3,-4.386578E2,2.4971623E-2,3.9344262E-3,-2.7678625E3,1.6116035E-3,1.1192883E0,-2.0048746E3,-5.5410315E2,3.292181E-3,-1.1163802E3,1.2115544E-2,3.1135603E3,5.3333333E-3,-1.265202E3,-2.1784376E1,1.6242188E2,2.6107187E2,9.896333E2,-6.737388E2,9.4400116E2],"split_indices":[1,3,7,5,0,9,0,0,0,9,0,0,0,0,0,0,0,0,7,0,0,0,0,1,0,0,0,0,0,0,0,0,0],"split_type":[0,0,0,0,0,0,0,0,0,0,0,0,0,0,0,0,0,0,0,0,0,0,0,0,0,0,0,0,0,0,0,0,0],"sum_hessian":[4.7E1,1E1,3.7E1,8E0,2E0,3.2E1,5E0,6E0,2E0,6E0,2.6E1,4E0,1E0,1E0,5E0,4E0,2E0,5E0,2.1E1,4E0,1E0,2E0,2E0,3E0,2E0,1.9E1,2E0,1E0,1E0,1E0,2E0,4E0,1.5E1],"tree_param":{"num_deleted":"0","num_feature":"10","num_nodes":"33","size_leaf_vector":"1"}},{"base_weights":[5.4751434E2,-2.1702758E4,6.9739746E3,-1.1673248E3,-3.1403521E4,2.5265293E3,3.0272594E4,-3.6622415E3,-5.263981E2,1.9501143E4,-1.9678716E3,3.9112234E3,8.395542E2,2.642325E3,7.70375E2,1.1021491E4,-6.2039507E3,1.59581E4,-8.800208E2,-7.894861E3,1.3807125E3,1.6130313E2,1.914111E3,-2.069375E1,-1.1130938E2,-1.2320201E3,2.0836563E2],"categories":[],"categories_nodes":[],"categories_segments":[],"categories_sizes":[],"default_left":[1,0,0,0,0,0,0,0,0,0,0,0,0,0,0,0,0,0,0,0,0,0,0,0,0,0,0],"id":35,"left_children":[1,3,5,-1,7,9,11,-1,-1,13,15,-1,-1,-1,-1,17,19,21,23,25,-1,-1,-1,-1,-1,-1,-1],"loss_changes":[7.014898E9,7.0365184E8,3.8610499E9,0E0,4.8931686E8,2.5559695E9,8.319437E8,0E0,0E0,3.6808166E8,1.5540241E9,0E0,0E0,0E0,0E0,4.2531533E8,8.1958086E8,1.974272E8,2.4029175E5,9.0883776E8,0E0,0E0,0E0,0E0,0E0,0E0,0E0],"parents":[2147483647,0,0,1,1,2,2,4,4,5,5,6,6,9,9,10,10,15,15,16,16,17,17,18,18,19,19],"right_children":[2,4,6,-1,8,10,12,-1,-1,14,16,-1,-1,-1,-1,18,20,22,24,26,-1,-1,-1,-1,-1,-1,-1],"split_conditions":[9.308958E-3,1.1402508E-2,8.722579E-2,-1.1673248E3,4.255319E-2,2.8288544E-3,1.3144809E-1,-3.6622415E3,-5.263981E2,-1.5705521E-1,2.0024125E-1,3.9112234E3,8.395542E2,2.642325E3,7.70375E2,-1.15244344E-1,8.238158E-2,4.14651E-3,3.292181E-3,1.0090818E-2,1.3807125E3,1.6130313E2,1.914111E3,-2.069375E1,-1.1130938E2,-1.2320201E3,2.0836563E2],"split_indices":[1,0,6,0,0,0,6,0,0,3,7,0,0,0,0,3,8,0,0,0,0,0,0,0,0,0,0],"split_type":[0,0,0,0,0,0,0,0,0,0,0,0,0,0,0,0,0,0,0,0,0,0,0,0,0,0,0],"sum_hessian":[4.7E1,1E1,3.7E1,6E0,4E0,3.2E1,5E0,3E0,1E0,6E0,2.6E1,3E0,2E0,3E0,3E0,6E0,2E1,4E0,2E0,1.9E1,1E0,1E0,3E0,1E0,1E0,1.3E1,6E0],"tree_param":{"num_deleted":"0","num_feature":"10","num_nodes":"27","size_leaf_vector":"1"}},{"base_weights":[5.991735E2,6.208521E3,-2.13372E4,2.0612168E3,2.8675156E4,-8.240763E2,-2.8694695E4,-1.4272264E4,6.070972E3,1.5460287E3,4.737475E3,-3.2433323E3,-5.0007812E2,-4.973956E3,-2.5012021E3,1.848599E4,2.5683167E3,-2.760547E2,-1.1882782E3,2.4199172E3,4.7064166E2,1.1301268E4,-1.178682E3,2.1590001E2,-1.8074063E2,3.16625E1,1.56318E3,-2.8919473E2,1.3116781E3],"categories":[],"categories_nodes":[],"categories_segments":[],"categories_sizes":[],"default_left":[0,0,0,0,0,0,0,0,0,0,0,0,0,0,0,0,0,0,0,0,0,0,0,0,0,0,0,0,0],"id":36,"left_children":[1,3,5,7,9,-1,11,13,15,-1,-1,-1,-1,17,-1,19,21,23,-1,-1,-1,25,27,-1,-1,-1,-1,-1,-1],"loss_changes":[6.038811E9,3.574757E9,7.271035E8,2.3134172E9,7.5024845E8,0E0,3.6930458E8,5.7462234E8,1.1701169E9,0E0,0E0,0E0,0E0,1.590046E8,0E0,3.5846003E8,7.659347E8,1.881789E7,0E0,0E0,0E0,3.2803616E8,4.542957E8,0E0,0E0,0E0,0E0,0E0,0E0],"parents":[2147483647,0,0,1,1,2,2,3,3,4,4,6,6,7,7,8,8,13,13,15,15,16,16,17,17,21,21,22,22],"right_children":[2,4,6,8,10,-1,12,14,16,-1,-1,-1,-1,18,-1,20,22,24,-1,-1,-1,26,28,-1,-1,-1,-1,-1,-1],"split_conditions":[1.717049E-1,1.5056648E0,9.6E-3,4.4441366E-1,3.2520324E-3,-8.240763E2,4.255319E-2,4.3540508E-1,3.5273368E-3,1.5460287E3,4.737475E3,-3.2433323E3,-5.0007812E2,5.082592E-3,-2.5012021E3,5.495156E1,2.0024125E-1,-1.12716764E-1,-1.1882782E3,2.4199172E3,4.7064166E2,2.4013774E-2,8.238158E-2,2.1590001E2,-1.8074063E2,3.16625E1,1.56318E3,-2.8919473E2,1.3116781E3],"split_indices":[1,7,0,9,0,0,0,9,0,0,0,0,0,0,0,5,7,3,0,0,0,1,8,0,0,0,0,0,0],"split_type":[0,0,0,0,0,0,0,0,0,0,0,0,0,0,0,0,0,0,0,0,0,0,0,0,0,0,0,0,0],"sum_hessian":[4.7E1,3.8E1,9E0,3.3E1,5E0,4E0,5E0,6E0,2.7E1,4E0,1E0,4E0,1E0,4E0,2E0,5E0,2.2E1,3E0,1E0,3E0,2E0,6E0,1.6E1,1E0,2E0,2E0,4E0,1.5E1,1E0],"tree_param":{"num_deleted":"0","num_feature":"10","num_nodes":"29","size_leaf_vector":"1"}},{"base_weights":[6.136201E2,-1.8468578E4,6.1212666E3,-1.1926943E4,-3.193729E3,3.8539492E3,4.5006E3,-1.3252822E4,-4.857578E2,9.301705E3,-6.9189614E3,-3.171547E2,-1.4404445E3,-1.2991667E3,1.1805114E4,-1.1554831E4,6.400453E3,1.8901438E4,6.7603125E3,-1.7532688E3,-1.7796994E4,-2.5267813E2,1.0218458E4,7.4324164E2,2.1116528E3,-2.6464584E2,1.1728344E3,-1.0621875E1,-2.1384766E2,1.8596875E2,-2.210027E3,1.2460938E3,2.8667502E2],"categories":[],"categories_nodes":[],"categories_segments":[],"categories_sizes":[],"default_left":[1,0,0,0,0,0,0,0,0,0,0,0,0,0,0,0,0,0,0,0,0,0,0,0,0,0,0,0,0,0,0,0,0],"id":37,"left_children":[1,3,5,7,-1,9,-1,11,-1,13,15,-1,-1,-1,17,19,21,23,25,27,29,-1,31,-1,-1,-1,-1,-1,-1,-1,-1,-1,-1],"loss_changes":[5.157755E9,5.8826726E8,3.1767823E9,1.9981568E7,0E0,2.235821E9,0E0,3.5584384E7,0E0,1.5486039E9,8.76668E8,0E0,0E0,0E0,6.9560986E8,5.8062656E8,1.621567E8,7.169715E7,7.320355E8,2.945135E6,5.486282E8,0E0,1.3735776E7,0E0,0E0,0E0,0E0,0E0,0E0,0E0,0E0,0E0,0E0],"parents":[2147483647,0,0,1,1,2,2,3,3,5,5,7,7,9,9,10,10,14,14,15,15,16,16,17,17,18,18,19,19,20,20,22,22],"right_children":[2,4,6,8,-1,10,-1,12,-1,14,16,-1,-1,-1,18,20,22,24,26,28,30,-1,32,-1,-1,-1,-1,-1,-1,-1,-1,-1,-1],"split_conditions":[9.308958E-3,1E-5,1.1916411E-1,5.8888885E1,-3.193729E3,-1.12716764E-1,4.5006E3,6.978367E-3,-4.857578E2,-3.6380368E-1,2.372797E-2,-3.171547E2,-1.4404445E3,-1.2991667E3,3.5273368E-3,1.0014306E-2,3.968254E-3,4.6622474E-2,1.8409511E-2,3.292181E-3,1.5564202E-3,-2.5267813E2,5.929691E-3,7.4324164E2,2.1116528E3,-2.6464584E2,1.1728344E3,-1.0621875E1,-2.1384766E2,1.8596875E2,-2.210027E3,1.2460938E3,2.8667502E2],"split_indices":[1,3,2,5,0,3,0,0,0,3,2,0,0,0,0,4,0,6,1,0,0,0,0,0,0,0,0,0,0,0,0,0,0],"split_type":[0,0,0,0,0,0,0,0,0,0,0,0,0,0,0,0,0,0,0,0,0,0,0,0,0,0,0,0,0,0,0,0,0],"sum_hessian":[4.7E1,1E1,3.7E1,8E0,2E0,3.6E1,1E0,6E0,2E0,2.4E1,1.2E1,1E0,5E0,2E0,2.2E1,9E0,3E0,8E0,1.4E1,4E0,5E0,1E0,2E0,2E0,6E0,5E0,9E0,1E0,3E0,1E0,4E0,1E0,1E0],"tree_param":{"num_deleted":"0","num_feature":"10","num_nodes":"33","size_leaf_vector":"1"}},{"base_weights":[5.639072E2,5.3660825E3,-1.8220967E4,3.2569958E3,4.275569E3,-6.8447394E2,-2.466433E4,8.4701E3,-6.284761E3,-2.7984988E3,-4.0305197E2,-1.2125563E3,1.0788226E4,-8.589416E3,1.1837875E3,1.7328521E4,6.1448335E3,-5.2582217E3,-1.7940657E3,6.9369165E2,1.9306562E3,-2.4259375E2,1.0672812E3,-1.0598109E3,-1.931E2],"categories":[],"categories_nodes":[],"categories_segments":[],"categories_sizes":[],"default_left":[0,0,0,0,0,0,0,0,0,0,0,0,0,0,0,0,0,0,0,0,0,0,0,0,0],"id":38,"left_children":[1,3,5,7,-1,-1,9,11,13,-1,-1,-1,15,17,-1,19,21,23,-1,-1,-1,-1,-1,-1,-1],"loss_changes":[4.4277714E9,2.9362033E9,5.64191E8,1.9434351E9,0E0,0E0,2.9831296E8,1.3243967E9,6.864104E8,0E0,0E0,0E0,5.920097E8,3.106244E8,0E0,5.1067136E7,6.080156E8,1.749719E8,0E0,0E0,0E0,0E0,0E0,0E0,0E0],"parents":[2147483647,0,0,1,1,2,2,3,3,6,6,7,7,8,8,12,12,13,13,15,15,16,16,17,17],"right_children":[2,4,6,8,-1,-1,10,12,14,-1,-1,-1,16,18,-1,20,22,24,-1,-1,-1,-1,-1,-1,-1],"split_conditions":[1.717049E-1,1.1916411E-1,9.6E-3,-1.12716764E-1,4.275569E3,-6.8447394E2,4.255319E-2,-3.6380368E-1,8.238158E-2,-2.7984988E3,-4.0305197E2,-1.2125563E3,3.5273368E-3,6.703703E1,1.1837875E3,4.6622474E-2,1.8409511E-2,4.741379E1,-1.7940657E3,6.9369165E2,1.9306562E3,-2.4259375E2,1.0672812E3,-1.0598109E3,-1.931E2],"split_indices":[1,2,0,3,0,0,0,3,8,0,0,0,0,5,0,6,1,5,0,0,0,0,0,0,0],"split_type":[0,0,0,0,0,0,0,0,0,0,0,0,0,0,0,0,0,0,0,0,0,0,0,0,0],"sum_hessian":[4.7E1,3.8E1,9E0,3.7E1,1E0,4E0,5E0,2.4E1,1.3E1,4E0,1E0,2E0,2.2E1,1.2E1,1E0,8E0,1.4E1,1E1,2E0,2E0,6E0,5E0,9E0,3E0,7E0],"tree_param":{"num_deleted":"0","num_feature":"10","num_nodes":"25","size_leaf_vector":"1"}},{"base_weights":[5.234124E2,-1.5795271E4,5.233468E3,-9.991176E3,-2.7942468E3,3.1793523E3,4.0617876E3,-2.6707346E2,-1.0572389E4,7.7125576E3,-5.782916E3,-1.197591E3,-4.241219E2,-1.1317188E3,9.859369E3,-9.956869E3,6.0976953E3,1.5887277E4,5.5853335E3,-1.4683438E3,-1.5371161E4,-2.3038907E2,9.666188E2,9.0510754E2,1.9546025E3,-2.2237708E2,9.7122626E2,-4.3437502E-1,-1.8332579E2,1.86325E2,-1.9190693E3],"categories":[],"categories_nodes":[],"categories_segments":[],"categories_sizes":[],"default_left":[1,0,0,0,0,0,0,0,0,0,0,0,0,0,0,0,0,0,0,0,0,0,0,0,0,0,0,0,0,0,0],"id":39,"left_children":[1,3,5,7,-1,9,-1,-1,11,13,15,-1,-1,-1,17,19,21,23,25,27,29,-1,-1,-1,-1,-1,-1,-1,-1,-1,-1],"loss_changes":[3.7720353E9,4.9636045E8,2.6328407E9,1.0056576E7,0E0,1.5478296E9,0E0,0E0,2.0294976E7,1.1329128E9,7.053724E8,0E0,0E0,0E0,5.0382464E8,4.370235E8,1.421938E8,4.819507E7,5.0501213E8,2.663208E6,4.307214E8,0E0,0E0,0E0,0E0,0E0,0E0,0E0,0E0,0E0,0E0],"parents":[2147483647,0,0,1,1,2,2,3,3,5,5,8,8,9,9,10,10,14,14,15,15,16,16,17,17,18,18,19,19,20,20],"right_children":[2,4,6,8,-1,10,-1,-1,12,14,16,-1,-1,-1,18,20,22,24,26,28,30,-1,-1,-1,-1,-1,-1,-1,-1,-1,-1],"split_conditions":[9.308958E-3,1E-5,1.1916411E-1,6.978367E-3,-2.7942468E3,-1.12716764E-1,4.0617876E3,-2.6707346E2,5.8888885E1,-3.6380368E-1,2.372797E-2,-1.197591E3,-4.241219E2,-1.1317188E3,3.5273368E-3,1.0014306E-2,3.968254E-3,1.6116035E-3,1.8409511E-2,3.292181E-3,1.5564202E-3,-2.3038907E2,9.666188E2,9.0510754E2,1.9546025E3,-2.2237708E2,9.7122626E2,-4.3437502E-1,-1.8332579E2,1.86325E2,-1.9190693E3],"split_indices":[1,3,2,0,0,3,0,0,5,3,2,0,0,0,0,4,0,0,1,0,0,0,0,0,0,0,0,0,0,0,0],"split_type":[0,0,0,0,0,0,0,0,0,0,0,0,0,0,0,0,0,0,0,0,0,0,0,0,0,0,0,0,0,0,0],"sum_hessian":[4.7E1,1E1,3.7E1,8E0,2E0,3.6E1,1E0,1E0,7E0,2.4E1,1.2E1,5E0,2E0,2E0,2.2E1,9E0,3E0,8E0,1.4E1,4E0,5E0,1E0,2E0,4E0,4E0,5E0,9E0,1E0,3E0,1E0,4E0],"tree_param":{"num_deleted":"0","num_feature":"10","num_nodes":"31","size_leaf_vector":"1"}},{"base_weights":[4.85132E2,-1.4641473E4,4.851119E3,-9.20192E3,-2.6079639E3,2.8964468E3,3.8587E3,-5.809969E2,-1.1989367E4,-8.750031E3,5.905626E3,-2.7245627E2,-1.4169448E3,-1.8464375E3,-1.9640541E3,1.37617705E4,2.423311E3,3.0283125E3,-7.730625E3,7.5291772E3,1.9670219E3,-7.6816016E3,4.4231187E3,5.6153754E2,2.9416666E1,-2.1290157E2,-9.466922E2,1.7700938E2,8.3269745E2,-2.269875E2,-8.728886E2,-7.4100726E2,6.251145E2],"categories":[],"categories_nodes":[],"categories_segments":[],"categories_sizes":[],"default_left":[1,0,0,0,0,0,0,0,0,0,0,0,0,0,0,0,0,0,0,0,0,0,0,0,0,0,0,0,0,0,0,0,0],"id":40,"left_children":[1,3,5,7,-1,9,-1,-1,11,13,15,-1,-1,17,-1,19,21,23,25,27,-1,29,31,-1,-1,-1,-1,-1,-1,-1,-1,-1,-1],"loss_changes":[3.2410703E9,4.4442086E8,2.3940534E9,1.543616E7,0E0,1.348389E9,0E0,0E0,4.2186496E7,5.6520416E8,7.873781E8,0E0,0E0,1.955144E8,0E0,1.8332403E8,4.7854995E8,2.6641768E7,9.022944E6,1.2827968E7,0E0,2.856992E6,4.5731792E8,0E0,0E0,0E0,0E0,0E0,0E0,0E0,0E0,0E0,0E0],"parents":[2147483647,0,0,1,1,2,2,3,3,5,5,8,8,9,9,10,10,13,13,15,15,16,16,17,17,18,18,19,19,21,21,22,22],"right_children":[2,4,6,8,-1,10,-1,-1,12,14,16,-1,-1,18,-1,20,22,24,26,28,-1,30,32,-1,-1,-1,-1,-1,-1,-1,-1,-1,-1],"split_conditions":[9.308958E-3,1E-5,1.1916411E-1,1.8293891E0,-2.6079639E3,4.4441366E-1,3.8587E3,-5.809969E2,9.308958E-3,4.3540508E-1,3.5273368E-3,-2.7245627E2,-1.4169448E3,3.9344262E-3,-1.9640541E3,1.6116035E-3,-1.0122818E-1,3.2520324E-3,5.082592E-3,1.2115544E-2,1.9670219E3,1.0489849E-2,3.968254E-3,5.6153754E2,2.9416666E1,-2.1290157E2,-9.466922E2,1.7700938E2,8.3269745E2,-2.269875E2,-8.728886E2,-7.4100726E2,6.251145E2],"split_indices":[1,3,2,9,0,9,0,0,1,9,0,0,0,0,0,0,8,0,0,1,0,1,0,0,0,0,0,0,0,0,0,0,0],"split_type":[0,0,0,0,0,0,0,0,0,0,0,0,0,0,0,0,0,0,0,0,0,0,0,0,0,0,0,0,0,0,0,0,0],"sum_hessian":[4.7E1,1E1,3.7E1,8E0,2E0,3.6E1,1E0,5E0,3E0,7E0,2.9E1,1E0,2E0,5E0,2E0,8E0,2.1E1,3E0,2E0,5E0,3E0,3E0,1.8E1,1E0,2E0,1E0,1E0,1E0,4E0,1E0,2E0,2E0,1.6E1],"tree_param":{"num_deleted":"0","num_feature":"10","num_nodes":"33","size_leaf_vector":"1"}},{"base_weights":[3.9929346E2,-1.3620811E4,4.447237E3,-8.533992E3,-2.4340994E3,2.5859392E3,3.6657625E3,-5.3258026E2,-1.1212779E4,-8.191621E3,5.3737573E3,-2.5883282E2,-1.322482E3,-1.2843911E4,3.8435E3,1.2716348E4,2.1257087E3,-1.3609375E3,-1.8245165E3,5.334594E2,4.3065624E1,6.9445415E3,1.819497E3,1.00685E4,-1.9871701E2,-1.884375E0,-2.0225626E2,1.6815938E2,7.6608124E2,-1.0906875E2,1.3130969E3,-6.743819E2,2.1530135E2],"categories":[],"categories_nodes":[],"categories_segments":[],"categories_sizes":[],"default_left":[1,0,0,0,0,0,0,0,0,0,0,0,0,0,0,0,0,0,0,0,0,0,0,0,0,0,0,0,0,0,0,0,0],"id":41,"left_children":[1,3,5,7,-1,9,-1,-1,11,13,15,-1,-1,17,19,21,23,25,-1,-1,-1,27,-1,29,31,-1,-1,-1,-1,-1,-1,-1,-1],"loss_changes":[2.7846991E9,3.92122E8,2.183424E9,1.7629504E7,0E0,1.1557174E9,0E0,0E0,3.5180864E7,4.972926E8,6.884414E8,0E0,0E0,3.473042E8,1.2969232E7,1.582382E8,4.0817418E8,2.6257755E6,0E0,0E0,0E0,9.735776E6,0E0,1.851951E8,2.9158122E8,0E0,0E0,0E0,0E0,0E0,0E0,0E0,0E0],"parents":[2147483647,0,0,1,1,2,2,3,3,5,5,8,8,9,9,10,10,13,13,14,14,15,15,16,16,17,17,21,21,23,23,24,24],"right_children":[2,4,6,8,-1,10,-1,-1,12,14,16,-1,-1,18,20,22,24,26,-1,-1,-1,28,-1,30,32,-1,-1,-1,-1,-1,-1,-1,-1],"split_conditions":[9.308958E-3,1E-5,1.1916411E-1,1.8293891E0,-2.4340994E3,4.4441366E-1,3.6657625E3,-5.3258026E2,9.308958E-3,7.64897E-2,3.5273368E-3,-2.5883282E2,-1.322482E3,2.144457E-1,3.2520324E-3,1.6116035E-3,2.8572498E-2,3.292181E-3,-1.8245165E3,5.334594E2,4.3065624E1,1.2115544E-2,1.819497E3,2.4013774E-2,3.269907E-2,-1.884375E0,-2.0225626E2,1.6815938E2,7.6608124E2,-1.0906875E2,1.3130969E3,-6.743819E2,2.1530135E2],"split_indices":[1,3,2,9,0,9,0,0,1,6,0,0,0,7,0,0,6,0,0,0,0,1,0,1,6,0,0,0,0,0,0,0,0],"split_type":[0,0,0,0,0,0,0,0,0,0,0,0,0,0,0,0,0,0,0,0,0,0,0,0,0,0,0,0,0,0,0,0,0],"sum_hessian":[4.7E1,1E1,3.7E1,8E0,2E0,3.6E1,1E0,5E0,3E0,7E0,2.9E1,1E0,2E0,5E0,2E0,8E0,2.1E1,2E0,3E0,1E0,1E0,5E0,3E0,4E0,1.7E1,1E0,1E0,1E0,4E0,1E0,3E0,4E0,1.3E1],"tree_param":{"num_deleted":"0","num_feature":"10","num_nodes":"33","size_leaf_vector":"1"}},{"base_weights":[3.836162E2,-1.090126E3,3.482475E3,5.371978E3,-9.346635E3,-9.4197815E2,6.93211E3,-1.8846053E4,-3.250779E3,1.1341125E3,1.0122602E4,-2.12423E4,-1.0361562E2,-5.0919834E3,1.0342438E3,-5.279578E2,4.6370625E3,-5.942563E2,1.1589783E4,-2.3547385E3,-3.7058984E2,9.834375E2,-7.012953E3,6.3354E2,2.6081251E1,1.2900724E3,-3.3816876E2,2.6315207E2,-1.9804063E2,-2.785372E2,-9.3671124E2],"categories":[],"categories_nodes":[],"categories_segments":[],"categories_sizes":[],"default_left":[0,0,0,0,1,0,0,0,0,1,0,1,0,0,0,0,0,0,0,0,0,0,0,0,0,0,0,0,0,0,0],"id":42,"left_children":[1,3,-1,5,7,-1,9,11,13,15,17,19,-1,21,-1,-1,23,-1,25,-1,-1,27,29,-1,-1,-1,-1,-1,-1,-1,-1],"loss_changes":[2.4743163E9,2.5578675E9,0E0,6.8838054E8,1.1547844E9,0E0,4.5098138E8,3.194053E8,4.030539E8,2.4915011E8,4.4600128E8,1.9569562E8,0E0,1.586159E8,0E0,0E0,5.037408E7,0E0,3.380265E8,0E0,0E0,2.4750126E7,7.343309E7,0E0,0E0,0E0,0E0,0E0,0E0,0E0,0E0],"parents":[2147483647,0,0,1,1,3,3,4,4,6,6,7,7,8,8,9,9,10,10,11,11,13,13,16,16,18,18,21,21,22,22],"right_children":[2,4,-1,6,8,-1,10,12,14,16,18,20,-1,22,-1,-1,24,-1,26,-1,-1,28,30,-1,-1,-1,-1,-1,-1,-1,-1],"split_conditions":[1.1916411E-1,-1.1035156E-1,3.482475E3,-3.6380368E-1,-7.7922076E-2,-9.4197815E2,6.2534964E-1,1.19533455E-2,8.238158E-2,1.6678134E-2,-1.146692E-1,4.6941888E-2,-1.0361562E2,-5.235602E-2,1.0342438E3,-5.279578E2,-1.4404663E-1,-5.942563E2,1.6064256E-2,-2.3547385E3,-3.7058984E2,3.4827042E-2,9.565805E-1,6.3354E2,2.6081251E1,1.2900724E3,-3.3816876E2,2.6315207E2,-1.9804063E2,-2.785372E2,-9.3671124E2],"split_indices":[2,3,0,3,3,0,9,2,8,1,8,6,0,3,0,0,3,0,0,0,0,1,9,0,0,0,0,0,0,0,0],"split_type":[0,0,0,0,0,0,0,0,0,0,0,0,0,0,0,0,0,0,0,0,0,0,0,0,0,0,0,0,0,0,0],"sum_hessian":[4.7E1,4.6E1,1E0,2.6E1,2E1,2E0,2.4E1,7E0,1.3E1,9E0,1.5E1,6E0,1E0,1.2E1,1E0,3E0,6E0,1E0,1.4E1,5E0,1E0,3E0,9E0,4E0,2E0,1.3E1,1E0,2E0,1E0,4E0,5E0],"tree_param":{"num_deleted":"0","num_feature":"10","num_nodes":"31","size_leaf_vector":"1"}},{"base_weights":[3.4702588E2,-1.053399E3,3.30835E3,4.8180137E3,-8.552196E3,-8.791802E2,6.2584707E3,-1.731506E4,-2.9339744E3,1.0338649E3,9.132695E3,-1.95074E4,-9.843438E1,-4.671251E3,9.8253125E2,-4.883619E2,4.2675894E3,-5.6454376E2,1.0494267E4,-2.15851E3,-3.5206015E2,9.013867E2,-6.433181E3,5.8285626E2,2.434375E1,1.2220563E3,-4.8443752E1,2.4561043E2,-1.8813829E2,-2.562547E2,-8.586513E2],"categories":[],"categories_nodes":[],"categories_segments":[],"categories_sizes":[],"default_left":[0,0,0,0,1,0,0,0,0,1,0,1,0,0,0,0,0,0,0,0,0,0,0,0,0,0,0,0,0,0,0],"id":43,"left_children":[1,3,-1,5,7,-1,9,11,13,15,17,19,-1,21,-1,-1,23,-1,25,-1,-1,27,29,-1,-1,-1,-1,-1,-1,-1,-1],"loss_changes":[2.2354092E9,2.1105457E9,0E0,5.84341E8,9.830642E8,0E0,3.6597523E8,2.6721766E8,3.562263E8,2.121964E8,3.811886E8,1.5651789E8,0E0,1.3344054E8,0E0,0E0,4.255227E7,0E0,2.9020736E8,0E0,0E0,2.1926552E7,6.134429E7,0E0,0E0,0E0,0E0,0E0,0E0,0E0,0E0],"parents":[2147483647,0,0,1,1,3,3,4,4,6,6,7,7,8,8,9,9,10,10,11,11,13,13,16,16,18,18,21,21,22,22],"right_children":[2,4,-1,6,8,-1,10,12,14,16,18,20,-1,22,-1,-1,24,-1,26,-1,-1,28,30,-1,-1,-1,-1,-1,-1,-1,-1],"split_conditions":[1.1916411E-1,-1.1035156E-1,3.30835E3,-3.6380368E-1,-7.7922076E-2,-8.791802E2,6.2534964E-1,1.19533455E-2,8.238158E-2,1.6678134E-2,-1.146692E-1,4.6941888E-2,-9.843438E1,-5.235602E-2,9.8253125E2,-4.883619E2,-1.4404663E-1,-5.6454376E2,1.2352611E-2,-2.15851E3,-3.5206015E2,3.4827042E-2,9.565805E-1,5.8285626E2,2.434375E1,1.2220563E3,-4.8443752E1,2.4561043E2,-1.8813829E2,-2.562547E2,-8.586513E2],"split_indices":[2,3,0,3,3,0,9,2,8,1,8,6,0,3,0,0,3,0,0,0,0,1,9,0,0,0,0,0,0,0,0],"split_type":[0,0,0,0,0,0,0,0,0,0,0,0,0,0,0,0,0,0,0,0,0,0,0,0,0,0,0,0,0,0,0],"sum_hessian":[4.7E1,4.6E1,1E0,2.6E1,2E1,2E0,2.4E1,7E0,1.3E1,9E0,1.5E1,6E0,1E0,1.2E1,1E0,3E0,6E0,1E0,1.4E1,5E0,1E0,3E0,9E0,4E0,2E0,1.2E1,2E0,2E0,1E0,4E0,5E0],"tree_param":{"num_deleted":"0","num_feature":"10","num_nodes":"31","size_leaf_vector":"1"}},{"base_weights":[3.2218115E2,-1.0083815E3,3.1429314E3,4.3306104E3,-7.8247812E3,-8.205677E2,5.66174E3,-1.590968E4,-2.6459263E3,9.4235706E2,8.257496E3,-1.7915312E4,-9.3512505E1,-4.2854688E3,9.3340625E2,-4.517342E2,3.9275625E3,1.3545679E4,3.7300188E3,-1.9786342E3,-3.3445703E2,8.256094E2,-5.901353E3,5.3622626E2,2.2720833E1,2.0503126E1,1.5734949E3,-1.3186751E2,7.315594E2,2.2923543E2,-1.7873125E2,-2.3575468E2,-7.870966E2],"categories":[],"categories_nodes":[],"categories_segments":[],"categories_sizes":[],"default_left":[0,0,0,0,1,0,0,0,0,1,0,1,0,0,0,0,0,0,0,0,0,0,0,0,0,0,0,0,0,0,0,0,0],"id":44,"left_children":[1,3,-1,5,7,-1,9,11,13,15,17,19,-1,21,-1,-1,23,25,27,-1,-1,29,31,-1,-1,-1,-1,-1,-1,-1,-1,-1,-1],"loss_changes":[2.018412E9,1.7443432E9,0E0,4.97019E8,8.371849E8,0E0,2.9847763E8,2.2351475E8,3.1498464E8,1.8072536E8,3.3254835E8,1.246592E8,0E0,1.1223805E8,0E0,0E0,3.594393E7,2.012178E8,1.9067162E8,0E0,0E0,1.9427112E7,5.1243104E7,0E0,0E0,0E0,0E0,0E0,0E0,0E0,0E0,0E0,0E0],"parents":[2147483647,0,0,1,1,3,3,4,4,6,6,7,7,8,8,9,9,10,10,11,11,13,13,16,16,17,17,18,18,21,21,22,22],"right_children":[2,4,-1,6,8,-1,10,12,14,16,18,20,-1,22,-1,-1,24,26,28,-1,-1,30,32,-1,-1,-1,-1,-1,-1,-1,-1,-1,-1],"split_conditions":[1.1916411E-1,-1.1035156E-1,3.1429314E3,-3.6380368E-1,-7.7922076E-2,-8.205677E2,6.2534964E-1,1.19533455E-2,8.238158E-2,1.6678134E-2,9.9740785E-1,4.6941888E-2,-9.3512505E1,-5.235602E-2,9.3340625E2,-4.517342E2,-1.4404663E-1,-1.7814569E-1,3.0111963E-1,-1.9786342E3,-3.3445703E2,3.4827042E-2,9.565805E-1,5.3622626E2,2.2720833E1,2.0503126E1,1.5734949E3,-1.3186751E2,7.315594E2,2.2923543E2,-1.7873125E2,-2.3575468E2,-7.870966E2],"split_indices":[2,3,0,3,3,0,9,2,8,1,9,6,0,3,0,0,3,4,7,0,0,1,9,0,0,0,0,0,0,0,0,0,0],"split_type":[0,0,0,0,0,0,0,0,0,0,0,0,0,0,0,0,0,0,0,0,0,0,0,0,0,0,0,0,0,0,0,0,0],"sum_hessian":[4.7E1,4.6E1,1E0,2.6E1,2E1,2E0,2.4E1,7E0,1.3E1,9E0,1.5E1,6E0,1E0,1.2E1,1E0,3E0,6E0,6E0,9E0,5E0,1E0,3E0,9E0,4E0,2E0,1E0,5E0,4E0,5E0,2E0,1E0,4E0,5E0],"tree_param":{"num_deleted":"0","num_feature":"10","num_nodes":"33","size_leaf_vector":"1"}},{"base_weights":[3.3533072E2,-9.2808246E2,2.9857876E3,3.9523735E3,-7.1587603E3,-7.658635E2,5.1875996E3,-1.461954E4,-2.3841172E3,8.5883044E2,7.5688555E3,-1.6454225E4,-8.88375E1,-3.9317224E3,8.867375E2,-4.1785333E2,3.614634E3,-5.2972186E2,8.779741E3,-1.813748E3,-3.1773438E2,7.5566797E2,-5.4135063E3,4.9332626E2,2.1204168E1,1.3558518E3,4.087389E2,2.1395207E2,-1.6979454E2,-1.5756407E2,-6.833215E2],"categories":[],"categories_nodes":[],"categories_segments":[],"categories_sizes":[],"default_left":[0,0,0,0,1,0,0,0,0,1,0,1,0,0,0,0,0,0,0,0,0,0,0,0,0,0,0,0,0,0,0],"id":45,"left_children":[1,3,-1,5,7,-1,9,11,13,15,17,19,-1,21,-1,-1,23,-1,25,-1,-1,27,29,-1,-1,-1,-1,-1,-1,-1,-1],"loss_changes":[1.8180707E9,1.4574959E9,0E0,4.2696995E8,7.1321894E8,0E0,2.5119725E8,1.8692134E8,2.7864422E8,1.5392371E8,2.9577786E8,9.88096E7,0E0,9.438491E7,0E0,0E0,3.0361232E7,0E0,2.809367E8,0E0,0E0,1.7214548E7,4.3719776E7,0E0,0E0,0E0,0E0,0E0,0E0,0E0,0E0],"parents":[2147483647,0,0,1,1,3,3,4,4,6,6,7,7,8,8,9,9,10,10,11,11,13,13,16,16,18,18,21,21,22,22],"right_children":[2,4,-1,6,8,-1,10,12,14,16,18,20,-1,22,-1,-1,24,-1,26,-1,-1,28,30,-1,-1,-1,-1,-1,-1,-1,-1],"split_conditions":[1.1916411E-1,-1.1035156E-1,2.9857876E3,-3.6380368E-1,-7.7922076E-2,-7.658635E2,6.2534964E-1,1.19533455E-2,8.238158E-2,1.6678134E-2,-1.146692E-1,4.6941888E-2,-8.88375E1,-5.235602E-2,8.867375E2,-4.1785333E2,-1.4404663E-1,-5.2972186E2,4.5263153E1,-1.813748E3,-3.1773438E2,3.4827042E-2,2.1894549E-1,4.9332626E2,2.1204168E1,1.3558518E3,4.087389E2,2.1395207E2,-1.6979454E2,-1.5756407E2,-6.833215E2],"split_indices":[2,3,0,3,3,0,9,2,8,1,8,6,0,3,0,0,3,0,5,0,0,1,7,0,0,0,0,0,0,0,0],"split_type":[0,0,0,0,0,0,0,0,0,0,0,0,0,0,0,0,0,0,0,0,0,0,0,0,0,0,0,0,0,0,0],"sum_hessian":[4.7E1,4.6E1,1E0,2.6E1,2E1,2E0,2.4E1,7E0,1.3E1,9E0,1.5E1,6E0,1E0,1.2E1,1E0,3E0,6E0,1E0,1.4E1,5E0,1E0,3E0,9E0,4E0,2E0,6E0,8E0,2E0,1E0,3E0,6E0],"tree_param":{"num_deleted":"0","num_feature":"10","num_nodes":"31","size_leaf_vector":"1"}},{"base_weights":[3.3140323E2,-8.685669E2,2.8365E3,3.5780833E3,-6.544328E3,8.493557E3,6.4848267E2,-1.3435129E4,-2.1392761E3,1.7989E3,5.439729E3,-4.402211E3,4.262761E3,-6.6277627E3,-1.8585555E3,-3.599836E3,8.424E2,1.6734219E3,7.043979E2,3.0365208E3,-7.387875E3,8.075607E3,-1.927775E3,-8.439687E1,-7.862719E2,6.9114844E2,-4.956246E3,2.2746251E2,-6.509375E0,-4.8315624E1,5.0379376E2,-8.1732684E2,-1.7304532E2,9.9947375E2,2.1851875E2,-1.14375E1,-3.0985834E2,1.9968959E2,-1.6130469E2,-1.9377438E2,-6.645624E2],"categories":[],"categories_nodes":[],"categories_segments":[],"categories_sizes":[],"default_left":[0,0,0,0,1,0,0,0,0,0,0,0,0,0,0,0,0,0,0,0,0,0,0,0,0,0,0,0,0,0,0,0,0,0,0,0,0,0,0,0,0],"id":46,"left_children":[1,3,-1,5,7,9,11,13,15,-1,17,19,21,23,-1,25,-1,27,-1,29,31,33,35,-1,-1,37,39,-1,-1,-1,-1,-1,-1,-1,-1,-1,-1,-1,-1,-1,-1],"loss_changes":[1.6393318E9,1.2096081E9,0E0,3.8330218E8,6.086996E8,1.9211917E8,3.4734864E8,1.5730611E8,2.4632115E8,0E0,4.2591344E7,2.0010987E8,2.752071E8,2.9077776E7,0E0,7.908986E7,0E0,4.328868E6,0E0,2.3567132E7,1.2516352E7,5.7290976E7,1.0261318E7,0E0,0E0,1.5255875E7,3.8116384E7,0E0,0E0,0E0,0E0,0E0,0E0,0E0,0E0,0E0,0E0,0E0,0E0,0E0,0E0],"parents":[2147483647,0,0,1,1,3,3,4,4,5,5,6,6,7,7,8,8,10,10,11,11,12,12,13,13,15,15,17,17,19,19,20,20,21,21,22,22,25,25,26,26],"right_children":[2,4,-1,6,8,10,12,14,16,-1,18,20,22,24,-1,26,-1,28,-1,30,32,34,36,-1,-1,38,40,-1,-1,-1,-1,-1,-1,-1,-1,-1,-1,-1,-1,-1,-1],"split_conditions":[1.1916411E-1,-1.1035156E-1,2.8365E3,3.5273368E-3,-7.7922076E-2,1.1163512E-2,-8.595388E-2,5.0130547E1,8.238158E-2,1.7989E3,3.9825583E-1,1.9366993E-1,2.715655E-2,2.4013774E-2,-1.8585555E3,-5.235602E-2,8.424E2,1.6116035E-3,7.043979E2,4.14651E-3,1.4492754E-2,1.2352611E-2,5.8479533E-3,-8.439687E1,-7.862719E2,3.4827042E-2,9.565805E-1,2.2746251E2,-6.509375E0,-4.8315624E1,5.0379376E2,-8.1732684E2,-1.7304532E2,9.9947375E2,2.1851875E2,-1.14375E1,-3.0985834E2,1.9968959E2,-1.6130469E2,-1.9377438E2,-6.645624E2],"split_indices":[2,3,0,0,3,1,4,5,8,0,7,7,4,1,0,3,0,0,0,0,0,0,0,0,0,1,9,0,0,0,0,0,0,0,0,0,0,0,0,0,0],"split_type":[0,0,0,0,0,0,0,0,0,0,0,0,0,0,0,0,0,0,0,0,0,0,0,0,0,0,0,0,0,0,0,0,0,0,0,0,0,0,0,0,0],"sum_hessian":[4.7E1,4.6E1,1E0,2.6E1,2E1,9E0,1.7E1,7E0,1.3E1,1E0,8E0,7E0,1E1,4E0,3E0,1.2E1,1E0,3E0,5E0,2E0,5E0,6E0,4E0,1E0,3E0,3E0,9E0,2E0,1E0,1E0,1E0,4E0,1E0,4E0,2E0,2E0,2E0,2E0,1E0,4E0,5E0],"tree_param":{"num_deleted":"0","num_feature":"10","num_nodes":"41","size_leaf_vector":"1"}},{"base_weights":[3.6526065E2,-7.7363806E2,2.694675E3,3.334576E3,-6.0187876E3,7.9166436E3,6.037283E2,-1.2432771E4,-1.9237405E3,1.7089563E3,4.9985903E3,-4.0288613E3,3.918E3,-4.8868555E3,-1.5982949E3,-3.3029224E3,8.0028125E2,1.5613281E3,6.457E2,2.8846875E3,-6.8141587E3,7.4420356E3,-1.79925E3,-8.017812E1,-5.9812866E2,6.316328E2,-4.546452E3,2.123E2,-6.1843753E0,-4.59E1,4.7860312E2,-7.519419E2,-1.6439297E2,9.195138E2,2.0395209E2,-1.0675E1,-2.892E2,1.8637709E2,-1.5323906E2,-1.7827188E2,-6.091822E2],"categories":[],"categories_nodes":[],"categories_segments":[],"categories_sizes":[],"default_left":[0,0,0,0,1,0,0,0,0,0,0,0,0,0,0,0,0,0,0,0,0,0,0,0,0,0,0,0,0,0,0,0,0,0,0,0,0,0,0,0,0],"id":47,"left_children":[1,3,-1,5,7,9,11,13,15,-1,17,19,21,23,-1,25,-1,27,-1,29,31,33,35,-1,-1,37,39,-1,-1,-1,-1,-1,-1,-1,-1,-1,-1,-1,-1,-1,-1],"loss_changes":[1.473981E9,1.03283526E9,0E0,3.3306954E8,5.2765946E8,1.8224698E8,2.9215098E8,1.3620838E8,2.181E8,0E0,3.503493E7,1.7370704E8,2.3501579E8,1.308764E7,0E0,6.6477264E7,0E0,3.778054E6,0E0,2.1269286E7,9.516736E6,4.754445E7,8.938676E6,0E0,0E0,1.3521527E7,3.1849888E7,0E0,0E0,0E0,0E0,0E0,0E0,0E0,0E0,0E0,0E0,0E0,0E0,0E0,0E0],"parents":[2147483647,0,0,1,1,3,3,4,4,5,5,6,6,7,7,8,8,10,10,11,11,12,12,13,13,15,15,17,17,19,19,20,20,21,21,22,22,25,25,26,26],"right_children":[2,4,-1,6,8,10,12,14,16,-1,18,20,22,24,-1,26,-1,28,-1,30,32,34,36,-1,-1,38,40,-1,-1,-1,-1,-1,-1,-1,-1,-1,-1,-1,-1,-1,-1],"split_conditions":[1.1916411E-1,-1.1035156E-1,2.694675E3,3.5273368E-3,-7.7922076E-2,1.1163512E-2,-8.595388E-2,1.0014306E-2,8.238158E-2,1.7089563E3,3.9825583E-1,1.9366993E-1,2.715655E-2,2.4013774E-2,-1.5982949E3,-5.235602E-2,8.0028125E2,1.6116035E-3,6.457E2,4.14651E-3,1.4492754E-2,1.2352611E-2,5.8479533E-3,-8.017812E1,-5.9812866E2,3.4827042E-2,9.565805E-1,2.123E2,-6.1843753E0,-4.59E1,4.7860312E2,-7.519419E2,-1.6439297E2,9.195138E2,2.0395209E2,-1.0675E1,-2.892E2,1.8637709E2,-1.5323906E2,-1.7827188E2,-6.091822E2],"split_indices":[2,3,0,0,3,1,4,4,8,0,7,7,4,1,0,3,0,0,0,0,0,0,0,0,0,1,9,0,0,0,0,0,0,0,0,0,0,0,0,0,0],"split_type":[0,0,0,0,0,0,0,0,0,0,0,0,0,0,0,0,0,0,0,0,0,0,0,0,0,0,0,0,0,0,0,0,0,0,0,0,0,0,0,0,0],"sum_hessian":[4.7E1,4.6E1,1E0,2.6E1,2E1,9E0,1.7E1,7E0,1.3E1,1E0,8E0,7E0,1E1,3E0,4E0,1.2E1,1E0,3E0,5E0,2E0,5E0,6E0,4E0,1E0,2E0,3E0,9E0,2E0,1E0,1E0,1E0,4E0,1E0,4E0,2E0,2E0,2E0,2E0,1E0,4E0,5E0],"tree_param":{"num_deleted":"0","num_feature":"10","num_nodes":"41","size_leaf_vector":"1"}},{"base_weights":[3.9883432E2,-6.8201764E2,2.5599438E3,3.1085486E3,-5.523126E3,7.381044E3,5.6224304E2,-1.2931681E4,-2.3997222E3,1.6235094E3,4.5933613E3,7.523016E2,-1.3314458E3,-1.5213342E3,-7.6168755E1,-3.5733953E3,7.6026874E2,1.4567188E3,5.918896E2,-5.512134E3,2.068139E3,-4.352632E3,9.9442706E2,1.9814584E2,-5.875E0,-1.3318646E2,-6.9178687E2,5.40195E2,-1.6793001E2,9.285E1,-4.870101E2,1.6807812E2,-1.8914062E1],"categories":[],"categories_nodes":[],"categories_segments":[],"categories_sizes":[],"default_left":[0,0,0,0,1,0,0,1,0,0,0,0,0,0,0,0,0,0,0,1,0,0,0,0,0,0,0,0,0,0,0,0,0],"id":48,"left_children":[1,3,-1,5,7,9,11,13,15,-1,17,-1,19,-1,-1,21,-1,23,-1,25,27,29,31,-1,-1,-1,-1,-1,-1,-1,-1,-1,-1],"loss_changes":[1.3248891E9,8.7964435E8,0E0,2.8958518E8,4.549056E8,1.7224915E8,2.4728416E8,1.55019E8,2.1500035E8,0E0,2.879736E7,0E0,2.2458891E8,0E0,0E0,5.771955E7,0E0,3.297317E6,0E0,3.1920768E7,1.2151077E8,4.004861E7,2.7549438E6,0E0,0E0,0E0,0E0,0E0,0E0,0E0,0E0,0E0,0E0],"parents":[2147483647,0,0,1,1,3,3,4,4,5,5,6,6,7,7,8,8,10,10,12,12,15,15,17,17,19,19,20,20,21,21,22,22],"right_children":[2,4,-1,6,8,10,12,14,16,-1,18,-1,20,-1,-1,22,-1,24,-1,26,28,30,32,-1,-1,-1,-1,-1,-1,-1,-1,-1,-1],"split_conditions":[1.1916411E-1,-1.1035156E-1,2.5599438E3,3.5273368E-3,-9.763314E-2,1.1163512E-2,2.8572498E-2,1.8409511E-2,8.238158E-2,1.6235094E3,3.9825583E-1,7.523016E2,-8.595388E-2,-1.5213342E3,-7.6168755E1,1.05152475E-2,7.6026874E2,1.6116035E-3,5.918896E2,2.969697E-1,4.3907794E-3,1.5564202E-3,1.1228946E-2,1.9814584E2,-5.875E0,-1.3318646E2,-6.9178687E2,5.40195E2,-1.6793001E2,9.285E1,-4.870101E2,1.6807812E2,-1.8914062E1],"split_indices":[2,3,0,0,3,1,6,1,8,0,7,0,4,0,0,0,0,0,0,7,4,0,0,0,0,0,0,0,0,0,0,0,0],"split_type":[0,0,0,0,0,0,0,0,0,0,0,0,0,0,0,0,0,0,0,0,0,0,0,0,0,0,0,0,0,0,0,0,0],"sum_hessian":[4.7E1,4.6E1,1E0,2.6E1,2E1,9E0,1.7E1,5E0,1.5E1,1E0,8E0,3E0,1.4E1,4E0,1E0,1.4E1,1E0,3E0,5E0,6E0,8E0,1.2E1,2E0,2E0,1E0,2E0,4E0,4E0,4E0,1E0,1.1E1,1E0,1E0],"tree_param":{"num_deleted":"0","num_feature":"10","num_nodes":"33","size_leaf_vector":"1"}},{"base_weights":[4.4614038E2,-5.7923694E2,2.4319438E3,2.89797E3,-5.0223486E3,6.8837188E3,5.226667E2,-1.0582125E4,-1.4865944E3,1.5423344E3,4.2211665E3,6.958781E2,-1.228475E3,-5.0498687E3,-1.4851915E3,-2.712111E3,7.222563E2,1.359125E3,5.4256665E2,-5.078768E3,1.9026945E3,-7.2359375E1,-5.950539E2,6.3327344E2,-3.779054E3,1.849375E2,-5.58125E0,-1.2430729E2,-6.364431E2,4.9697998E2,-1.54495E2,1.6525417E2,-1.2122656E2,-1.2504938E2,-5.256345E2],"categories":[],"categories_nodes":[],"categories_segments":[],"categories_sizes":[],"default_left":[0,0,0,0,1,0,0,0,0,0,0,0,0,0,0,0,0,0,0,1,0,0,0,0,0,0,0,0,0,0,0,0,0,0,0],"id":49,"left_children":[1,3,-1,5,7,9,11,13,15,-1,17,-1,19,21,-1,23,-1,25,-1,27,29,-1,-1,31,33,-1,-1,-1,-1,-1,-1,-1,-1,-1,-1],"loss_changes":[1.1890854E9,7.406867E8,0E0,2.520209E8,3.9708672E8,1.6226742E8,2.1141856E8,1.1397235E8,1.6901346E8,0E0,2.3651808E7,0E0,1.9050213E8,1.517696E7,0E0,4.879451E7,0E0,2.877911E6,0E0,2.6608432E7,1.0284671E8,0E0,0E0,9.527717E6,3.0781168E7,0E0,0E0,0E0,0E0,0E0,0E0,0E0,0E0,0E0,0E0],"parents":[2147483647,0,0,1,1,3,3,4,4,5,5,6,6,7,7,8,8,10,10,12,12,13,13,15,15,17,17,19,19,20,20,23,23,24,24],"right_children":[2,4,-1,6,8,10,12,14,16,-1,18,-1,20,22,-1,24,-1,26,-1,28,30,-1,-1,32,34,-1,-1,-1,-1,-1,-1,-1,-1,-1,-1],"split_conditions":[1.1916411E-1,-1.1035156E-1,2.4319438E3,3.5273368E-3,-7.7922076E-2,1.1163512E-2,2.8572498E-2,5.0130547E1,8.238158E-2,1.5423344E3,3.9825583E-1,6.958781E2,-8.595388E-2,2.4013774E-2,-1.4851915E3,-5.235602E-2,7.222563E2,1.6116035E-3,5.4256665E2,2.969697E-1,4.3907794E-3,-7.2359375E1,-5.950539E2,3.4827042E-2,9.565805E-1,1.849375E2,-5.58125E0,-1.2430729E2,-6.364431E2,4.9697998E2,-1.54495E2,1.6525417E2,-1.2122656E2,-1.2504938E2,-5.256345E2],"split_indices":[2,3,0,0,3,1,6,5,8,0,7,0,4,1,0,3,0,0,0,7,4,0,0,1,9,0,0,0,0,0,0,0,0,0,0],"split_type":[0,0,0,0,0,0,0,0,0,0,0,0,0,0,0,0,0,0,0,0,0,0,0,0,0,0,0,0,0,0,0,0,0,0,0],"sum_hessian":[4.7E1,4.6E1,1E0,2.6E1,2E1,9E0,1.7E1,7E0,1.3E1,1E0,8E0,3E0,1.4E1,4E0,3E0,1.2E1,1E0,3E0,5E0,6E0,8E0,1E0,3E0,3E0,9E0,2E0,1E0,2E0,4E0,4E0,4E0,2E0,1E0,4E0,5E0],"tree_param":{"num_deleted":"0","num_feature":"10","num_nodes":"35","size_leaf_vector":"1"}},{"base_weights":[4.6270435E2,-5.1057587E2,2.3103438E3,2.7023076E3,-4.617113E3,6.4217563E3,4.85819E2,-9.792988E3,-1.3296764E3,1.4652188E3,3.8792432E3,6.436875E2,-1.1335172E3,-4.6783623E3,-1.3738022E3,-2.487565E3,6.8614374E2,1.2680469E3,4.9735E3,-2.9587454E3,4.625547E3,-6.874062E1,-5.50425E2,5.809531E2,-3.4662156E3,1.7260834E2,-5.303125E0,5.416025E2,1.3804375E2,-5.0448593E2,-7.479699E1,-3.6125E1,6.4082294E2,1.542375E2,-1.1516563E2,-7.19375E1,-4.540665E2],"categories":[],"categories_nodes":[],"categories_segments":[],"categories_sizes":[],"default_left":[0,0,0,0,1,0,0,0,0,0,0,0,0,0,0,0,0,0,0,0,0,0,0,0,0,0,0,0,0,0,0,0,0,0,0,0,0],"id":50,"left_children":[1,3,-1,5,7,9,11,13,15,-1,17,-1,19,21,-1,23,-1,25,27,29,31,-1,-1,33,35,-1,-1,-1,-1,-1,-1,-1,-1,-1,-1,-1,-1],"loss_changes":[1.0695134E9,6.325866E8,0E0,2.194713E8,3.4430106E8,1.5242038E8,1.8075798E8,9.714758E7,1.4984982E8,0E0,1.9409264E7,0E0,1.7135992E8,1.2696752E7,0E0,4.105281E7,0E0,2.5119445E6,2.063632E6,5.156975E7,3.7874464E7,0E0,0E0,8.43936E6,2.6246976E7,0E0,0E0,0E0,0E0,0E0,0E0,0E0,0E0,0E0,0E0,0E0,0E0],"parents":[2147483647,0,0,1,1,3,3,4,4,5,5,6,6,7,7,8,8,10,10,12,12,13,13,15,15,17,17,18,18,19,19,20,20,23,23,24,24],"right_children":[2,4,-1,6,8,10,12,14,16,-1,18,-1,20,22,-1,24,-1,26,28,30,32,-1,-1,34,36,-1,-1,-1,-1,-1,-1,-1,-1,-1,-1,-1,-1],"split_conditions":[1.1916411E-1,-1.1035156E-1,2.3103438E3,3.5273368E-3,-7.7922076E-2,1.1163512E-2,2.8572498E-2,5.0130547E1,8.238158E-2,1.4652188E3,3.9825583E-1,6.436875E2,-7.3496113E-3,2.4013774E-2,-1.3738022E3,-5.235602E-2,6.8614374E2,1.6116035E-3,1.8494263E-2,-2.3726115E-1,5.8479533E-3,-6.874062E1,-5.50425E2,3.4827042E-2,2.1894549E-1,1.7260834E2,-5.303125E0,5.416025E2,1.3804375E2,-5.0448593E2,-7.479699E1,-3.6125E1,6.4082294E2,1.542375E2,-1.1516563E2,-7.19375E1,-4.540665E2],"split_indices":[2,3,0,0,3,1,6,5,8,0,7,0,8,1,0,3,0,0,2,3,0,0,0,1,7,0,0,0,0,0,0,0,0,0,0,0,0],"split_type":[0,0,0,0,0,0,0,0,0,0,0,0,0,0,0,0,0,0,0,0,0,0,0,0,0,0,0,0,0,0,0,0,0,0,0,0,0],"sum_hessian":[4.7E1,4.6E1,1E0,2.6E1,2E1,9E0,1.7E1,7E0,1.3E1,1E0,8E0,3E0,1.4E1,4E0,3E0,1.2E1,1E0,3E0,5E0,1.1E1,3E0,1E0,3E0,3E0,9E0,2E0,1E0,4E0,1E0,5E0,6E0,1E0,2E0,2E0,1E0,3E0,6E0],"tree_param":{"num_deleted":"0","num_feature":"10","num_nodes":"37","size_leaf_vector":"1"}},{"base_weights":[4.8930502E2,-4.3425232E2,2.194825E3,2.5424944E3,-4.2408193E3,6.0107812E3,4.7441882E2,-1.0260832E4,-1.7182637E3,1.3919563E3,3.5854097E3,-3.0021904E3,2.959733E3,-1.2051786E3,-6.530312E1,-2.7019312E3,6.518375E2,1.1830625E3,4.5894062E3,2.1539167E3,-5.079879E3,5.506268E3,-1.1973625E3,-4.0999443E3,-5.1849554E2,1.611E2,-5.0375E0,4.9827252E2,1.3114062E2,-2.6990625E1,3.5007812E2,-5.537619E2,-1.3955899E2,6.9515875E2,1.26197914E2,1.523125E1,-2.1479167E2,-5.157911E2,-2.6470835E1,1.2347344E2,-2.1421016E2],"categories":[],"categories_nodes":[],"categories_segments":[],"categories_sizes":[],"default_left":[0,0,0,0,1,0,0,1,0,0,0,0,0,0,0,0,0,0,0,0,0,0,0,1,0,0,0,0,0,0,0,0,0,0,0,0,0,0,0,0,0],"id":51,"left_children":[1,3,-1,5,7,9,11,13,15,-1,17,19,21,-1,-1,23,-1,25,27,29,31,33,35,37,39,-1,-1,-1,-1,-1,-1,-1,-1,-1,-1,-1,-1,-1,-1,-1,-1],"loss_changes":[9.608222E8,5.4334803E8,0E0,1.9081074E8,3.012714E8,1.4191002E8,1.6441406E8,9.537261E7,1.4724602E8,0E0,1.6277968E7,9.664391E7,1.2304109E8,0E0,0E0,4.366128E7,0E0,2.1924905E6,1.201424E6,1.0738565E7,2.390432E6,3.4167696E7,6.741851E6,3.515261E7,2.2570808E7,0E0,0E0,0E0,0E0,0E0,0E0,0E0,0E0,0E0,0E0,0E0,0E0,0E0,0E0,0E0,0E0],"parents":[2147483647,0,0,1,1,3,3,4,4,5,5,6,6,7,7,8,8,10,10,11,11,12,12,15,15,17,17,18,18,19,19,20,20,21,21,22,22,23,23,24,24],"right_children":[2,4,-1,6,8,10,12,14,16,-1,18,20,22,-1,-1,24,-1,26,28,30,32,34,36,38,40,-1,-1,-1,-1,-1,-1,-1,-1,-1,-1,-1,-1,-1,-1,-1,-1],"split_conditions":[1.1916411E-1,-1.1035156E-1,2.194825E3,3.5273368E-3,-9.763314E-2,1.1163512E-2,-8.595388E-2,1.8409511E-2,8.238158E-2,1.3919563E3,3.9825583E-1,1.9366993E-1,2.715655E-2,-1.2051786E3,-6.530312E1,5.9972107E-2,6.518375E2,1.6116035E-3,1.8494263E-2,4.14651E-3,1.4492754E-2,1.2352611E-2,5.8479533E-3,4.6412203E-2,3.4827042E-2,1.611E2,-5.0375E0,4.9827252E2,1.3114062E2,-2.6990625E1,3.5007812E2,-5.537619E2,-1.3955899E2,6.9515875E2,1.26197914E2,1.523125E1,-2.1479167E2,-5.157911E2,-2.6470835E1,1.2347344E2,-2.1421016E2],"split_indices":[2,3,0,0,3,1,4,1,8,0,7,7,4,0,0,4,0,0,2,0,0,0,0,1,1,0,0,0,0,0,0,0,0,0,0,0,0,0,0,0,0],"split_type":[0,0,0,0,0,0,0,0,0,0,0,0,0,0,0,0,0,0,0,0,0,0,0,0,0,0,0,0,0,0,0,0,0,0,0,0,0,0,0,0,0],"sum_hessian":[4.7E1,4.6E1,1E0,2.6E1,2E1,9E0,1.7E1,5E0,1.5E1,1E0,8E0,7E0,1E1,4E0,1E0,1.4E1,1E0,3E0,5E0,2E0,5E0,6E0,4E0,8E0,6E0,2E0,1E0,4E0,1E0,1E0,1E0,4E0,1E0,4E0,2E0,2E0,2E0,6E0,2E0,3E0,3E0],"tree_param":{"num_deleted":"0",